tree
version=v4
num_class=1
num_tree_per_iteration=1
label_index=0
max_feature_idx=31
objective=regression
feature_names=Column_0 Column_1 Column_2 Column_3 Column_4 Column_5 Column_6 Column_7 Column_8 Column_9 Column_10 Column_11 Column_12 Column_13 Column_14 Column_15 Column_16 Column_17 Column_18 Column_19 Column_20 Column_21 Column_22 Column_23 Column_24 Column_25 Column_26 Column_27 Column_28 Column_29 Column_30 Column_31
feature_infos=[22.747499999999999:30.75] [24.105:29.774000000000001] [25.943000000000001:32.561999999999998] [4.3384999999999998:12.47175] [1.0700000000000001:2.6857500000000001] [0.19399999999999998:1.47275] [0.079000000000000015:0.92775000000000007] [0.92455284552845529:1.2718410198725159] [90.063058389536522:110.4838486180644] [0:6.7002461116688794] [1.9996901207543742:13.000349484518907] [15775.861737920462:21182.971931342763] [15993.633138487319:22528.836467862409] [1049.6390479519414:1243.4896026951064] [1166.3650502882494:1290.1002387104354] [34.380000000000003:48.810000000000002] [34.329999999999998:39.979999999999997] [1.4099999999999999:5.0199999999999996] [3.0299999999999998:6.6799999999999997] [0.45000000000000001:2.4199999999999999] [0.91000000000000003:1.3700000000000001] [1.24:2.3799999999999999] [3.8900000000000001:9.8399999999999999] [66.620000000000005:72.049999999999997] [9.3900000000000006:27.390000000000001] [37.670000000000002:48.549999999999997] [13.77:26.030000000000001] [23.140000000000001:37.799999999999997] [1.2003004876021386:26.688759533888753] [0.48747477874746958:0.71090044650007767] [182.0035637648356:265.80728143045434] [0:0.071177201672372806]
tree_sizes=1552 1556 1828 1655 1395 1912 1841 1996 1745 1921 1844 1488 1585 1564 2205 2004 1758 1663 1309 1400 1569 1311 1310 2034 1849 1568 1192 1385 1461 1924 1392 1297 1037 1306 1844 1775 1496 1494 1048 1587 1764 953 1944 1316 946 1118 1327 1049 1413 1151 1144 1504 1489 1413 1831 1059 1217 1226 875 1233 1136 1415 1230 958 1656 1406 1418 1329 1493 1863 1137 1220 1503 1319 1231 2043 1485 1568 1325 1490 1496 1492 1688 954 1225 1327 2000 1493 1586 956 1684 1413 1407 1514 1576 867 783 1233 1055 1225 1050 1033 1670 874 1047 1324 1585 1235 1685 1768 1412 789 1598 1679 1050 948 1403 1232 1505 1862 1501 948 1410 1330 1331 1331 1683 1298 1217 1320 1417 1311 1413 1510 1142 1233 965 1674 1605 1217 878 1685 1054 1582 1141 1052 1237 952 1145 1048 1427 964 1410 1054 1130 1045 1149 872 1053 967 1053 1222 1051 1138 1785 1417 1059 1139 1318 883 1415 1309 1503 1412 967 1323 880 1052 972 1234 1047 1143 1749 1151 960 963 1329 1411 1060 962 1418 878 1054 1579 1143 1065 1406 796 1066 1061 973 1058 1322 1240 1057 1225 1057 1060 1768 962 1326 957 1144 1136 1519 968 1408 1148 876 1962 1057 1146 1233 783 1061 1317 790 1875 1779 970 878 1149 1058 875 1240 965 1331 880 1414 1674 973 1242 878 1239 961 972 1768 1515 1056 1510 1418 1146 1043 1315 1248 883 882 1226 880 879 1153 1611 1333 953 1512 1505 1133 1142 873 1424 1148 970 1688 878 882 970 1419 966 886 2064 879 1239 1327 1316 955 1149 789 1239 1150 1340 875 1436 1603 1314 1137 1422 953 1156 1394 1704 1418 1967 1063 1970 1146 1885 1245 1149 1423 1522 1339 883 955 1334 1512 1409 1420 1150 1338 1062 2154 1326 1334 1695 1421 881 1144 1245 1060 966 880 1056 1058 1151 1153 1693 1149 970 1239 961 1327 956 2067 969 1524 877 1328 1328 1145 1063 971 1238 1061 1336 1702 1703 1511 1151 965 1153 1700 1882 972 1425 1150 1491 965 966 964 1337 1514 1432 1240 1154 967 1344 1419 950 1039 1428 791 1231 877 1429 882 970 970 1522 880 1711 1341 966 878 1315 1332 1503 1247 962 1340 1246 1333 1154 1336 879 1703 1150 1061 2065 884 1061 881 787 787 1429 1611 1321 1053 972 1518 1336 1245 1797 1789 1327 1616 1248 1242 1604 1239 1344 1772 1244 1242 1341 1242 1331 1146 1060 1246 1434 965 1057 1153 1335 1056 1517 1238 879 1238 1057 971 1522 881 791 1891 1513 1408 878 879 971 1337 1067 1686 970 1326 1417 1059 1427 881 1250 1406 975 971 1864 1251 1155 882 1061 1063 971 1145 1323 1518 1158 1799 1323 971 1614 2146 1429 882 1059 1421 1155 1702 969 1513 2238 1411 1249

Tree=0
num_leaves=17
num_cat=0
split_feature=15 23 2 23 23 23 18 15 19 2 19 11 13 31 5 26
split_gain=0.131357 0.0898182 0.0604363 0.0751599 0.0488056 0.0459184 0.0297143 0.0376075 0.0245578 0.0222802 0.0153631 0.0143071 0.0110817 0.00777974 0.00760132 0.0050625
threshold=45.215000000000011 70.985000000000014 27.193875000000002 68.595000000000013 70.15000000000002 69.185000000000016 5.1050000000000013 43.175000000000004 0.93500000000000016 29.662000000000003 1.5450000000000002 17645.08567399556 1205.2867504422927 0.0080020048884731892 0.41937500000000005 16.805000000000003
decision_type=2 2 2 2 2 2 2 2 2 2 2 2 2 2 2 2
left_child=1 2 4 10 11 13 7 -5 -7 -8 14 15 -6 -2 -4 -1
right_child=5 -3 3 6 12 8 9 -9 -10 -11 -12 -13 -14 -15 -16 -17
leaf_value=0.76257688295282644 0.76721639907654715 0.7687823179247204 0.76532221275880374 0.76538521637581514 0.76504771641428648 0.76998521644985973 0.76855664485586761 0.76638892724172925 0.76772331152979645 0.76630405644040134 0.76374803662414958 0.76454582228582346 0.76655188257433693 0.76610500773063039 0.7644460006854793 0.76370188299636577
leaf_weight=20 31 23 91 150 24 21 21 247 28 23 26 33 25 32 34 20
leaf_count=20 31 23 91 150 24 21 21 247 28 23 26 33 25 32 34 20
internal_value=0.765949 0.765707 0.765608 0.765817 0.764595 0.767545 0.766146 0.76601 0.768693 0.767379 0.764854 0.763775 0.765815 0.766652 0.765084 0.763139
internal_weight=849 737 714 592 122 112 441 397 49 44 151 73 49 63 125 40
internal_count=849 737 714 592 122 112 441 397 49 44 151 73 49 63 125 40
is_linear=0
shrinkage=1


Tree=1
num_leaves=16
num_cat=0
split_feature=15 23 23 15 17 23 19 4 19 19 18 15 9 9 10
split_gain=0.119017 0.0787847 0.0589543 0.0659227 0.047759 0.0327203 0.031169 0.0234494 0.0219164 0.011964 0.0103979 0.00724129 0.00721088 0.00657483 0.00491542
threshold=45.445000000000007 70.985000000000014 68.545000000000016 43.215000000000011 3.6550000000000007 69.185000000000016 1.4850000000000001 1.4764375000000003 1.385 0.99500000000000011 5.1450000000000005 44.705000000000005 0.79986417610085703 1.466826665901741 9.0000355600469639
decision_type=2 2 2 2 2 2 2 2 2 2 2 2 2 2 2
left_child=1 2 8 4 6 12 -4 9 11 -5 -9 14 -2 -10 -1
right_child=5 -3 3 7 -6 -7 -8 10 13 -11 -12 -13 -14 -15 -16
leaf_value=-0.00071418431794477834 0.0014963229142484211 0.0026913190655329308 -0.00042464555178381761 0.00045259266950284382 0.0016845752224547879 0.0028722289403399024 -0.0016077649040883522 0.001054990742704831 -0.0015411769249476493 -0.00042037152571794699 -0.000119109594644132 0.00011854781885631383 0.00016974912956357001 -0.0027115431614220145 -0.0015823012344877829
leaf_weight=63 21 23 178 79 21 39 81 132 30 78 22 20 20 20 22
leaf_count=63 21 23 178 79 21 39 81 132 30 78 22 20 20 20 22
internal_value=2.87953e-13 -0.000190942 -0.000279806 -5.21753e-05 -0.000608714 0.00183543 -0.000794656 0.000448888 -0.00114774 1.88907e-05 0.000887262 -0.00073746 0.000849214 -0.00200932 -0.000938873
internal_weight=849 769 746 591 280 80 259 311 155 157 154 105 41 50 85
internal_count=849 769 746 591 280 80 259 311 155 157 154 105 41 50 85
is_linear=0
shrinkage=0.05


Tree=2
num_leaves=19
num_cat=0
split_feature=15 23 2 23 9 23 15 29 2 23 13 23 17 11 12 12 31 4
split_gain=0.108319 0.0766494 0.0498113 0.0630976 0.0444638 0.0423097 0.0272344 0.0223194 0.0212108 0.0201526 0.0199728 0.0177862 0.0187528 0.0139572 0.00892738 0.00624397 0.00355287 0.00220311
threshold=44.795000000000009 70.985000000000014 27.193875000000002 68.845000000000013 6.3648784017588023 69.125000000000014 45.760000000000012 0.60607855714560899 29.662000000000003 69.945000000000007 1205.2867504422927 68.015000000000015 2.7250000000000005 17645.08567399556 19782.428393403723 19991.363365233363 0.007891903509665581 1.4596875
decision_type=2 2 2 2 2 2 2 2 2 2 2 2 2 2 2 2 2 2
left_child=1 2 4 11 13 14 15 8 -5 -9 -6 -4 -13 -1 -2 -7 17 -16
right_child=5 -3 3 7 10 6 -8 9 -10 -11 -12 12 -14 -15 16 -17 -18 -19
leaf_value=-0.0027997237397357822 -0.00023888811546688281 0.002556753016340182 -0.0018880469931496517 0.0014036045933607966 -0.0013003708876203747 0.00097143567202562882 0.0036494776047766211 -0.00056533983136019248 0.00025454325196464406 0.00084346244958314037 0.00080130863979530455 -0.00089194760582470109 0.0005710754789806043 -0.0013870956273475553 0.00070329826203701295 0.0021281522326171399 0.00029886977135902272 0.0013953503094735031
leaf_weight=36 30 23 36 56 20 28 20 110 142 33 26 139 26 34 23 20 24 23
leaf_count=36 30 23 36 56 20 28 20 110 142 33 26 139 26 34 23 20 24 23
internal_value=-4.78208e-12 -0.000280511 -0.000379686 -0.000178429 -0.00132004 0.00113707 0.00209931 0.000235759 0.00057953 -0.000240232 -0.000112465 -0.000881107 -0.000661411 -0.00211359 0.000482751 0.0014534 0.000792026 0.00104932
internal_weight=849 681 658 542 116 168 68 341 198 143 46 201 165 70 100 48 70 46
internal_count=849 681 658 542 116 168 68 341 198 143 46 201 165 70 100 48 70 46
is_linear=0
shrinkage=0.05


Tree=3
num_leaves=17
num_cat=0
split_feature=15 23 23 17 20 23 15 15 26 21 8 12 12 15 27 23
split_gain=0.0979865 0.07176 0.0539107 0.0421299 0.0584558 0.0389381 0.025195 0.0201739 0.0186123 0.0151961 0.0101916 0.00822005 0.00665976 0.00392107 0.00307115 0.00108081
threshold=44.505000000000003 70.985000000000014 69.125000000000014 3.6550000000000007 1.1450000000000002 68.545000000000016 45.760000000000012 40.995000000000012 17.455000000000002 1.7350000000000001 95.624382791419578 20526.443470311951 20072.775414089232 45.390000000000008 28.375000000000004 68.685000000000016
decision_type=2 2 2 2 2 2 2 2 2 2 2 2 2 2 2 2
left_child=1 3 10 4 7 11 12 -1 -9 -7 -2 -6 -4 14 -12 -16
right_child=2 -3 6 -5 5 9 -8 8 -10 -11 13 -13 -14 -15 15 -17
leaf_value=-0.0028386279491574638 -0.00043681877898052337 0.0024289155034753294 0.00098484803440644295 0.0015941155538894238 -0.0014194529494896198 -0.00016032850261955687 0.0034670037828618662 -0.0014468863004560961 0.00023285810486413537 0.00062360398122109474 0.00082297430860555981 -0.00044533305808727166 0.0020236586229185815 0.0010223420441991861 -0.00015989433796632859 0.00033623678027652206
leaf_weight=21 35 23 36 25 67 272 20 94 20 80 22 32 27 31 21 23
leaf_count=21 35 23 36 25 67 272 20 94 20 80 22 32 27 31 21 23
internal_value=2.49559e-12 -0.000312805 0.000922411 -0.000416012 -0.000501769 -0.000228548 0.00192088 -0.00141453 -0.00115219 1.7838e-05 0.000294584 -0.00110459 0.00143005 0.000558492 0.000340623 9.94469e-05
internal_weight=849 634 215 611 586 451 83 135 114 352 132 99 63 97 66 44
internal_count=849 634 215 611 586 451 83 135 114 352 132 99 63 97 66 44
is_linear=0
shrinkage=0.05


Tree=4
num_leaves=14
num_cat=0
split_feature=15 23 15 17 19 23 23 20 4 9 22 12 9
split_gain=0.089129 0.0579857 0.0472657 0.0566172 0.051594 0.0326543 0.0241884 0.0226356 0.0224244 0.0206122 0.0105189 0.00829265 0.0058816
threshold=45.445000000000007 70.985000000000014 42.935000000000009 3.6550000000000007 1.7750000000000001 68.845000000000013 69.185000000000016 1.1450000000000002 1.4764375000000003 6.3648784017588023 4.6950000000000012 20514.165477653547 0.79986417610085703
decision_type=2 2 2 2 2 2 2 2 2 2 2 2 2
left_child=1 2 3 7 5 11 12 9 -7 -1 -9 -4 -2
right_child=6 -3 4 -5 -6 8 -8 10 -10 -11 -12 -13 -14
leaf_value=-0.0018911186110090476 0.0013248222613973279 0.0023074696407369946 -0.00070411018368371947 0.0015481458650053051 -0.0024273423559498042 4.3205929717354092e-05 0.0024797731794840216 -0.0010912404477130622 0.00091956008113223779 -0.00042352313828428819 -0.00015745183658222425 1.4719104094962988e-05 0.00012674469326157123
leaf_weight=87 21 23 94 24 20 145 39 50 147 33 76 70 20
leaf_count=87 21 23 94 24 20 145 39 50 147 33 76 70 20
internal_value=-2.58976e-12 -0.000165237 -0.000241473 -0.000769913 5.82717e-05 0.00016729 0.00158834 -0.000996065 0.000484384 -0.00148753 -0.000528003 -0.000397293 0.000740394
internal_weight=849 769 746 270 476 456 80 246 292 120 126 164 41
internal_count=849 769 746 270 476 456 80 246 292 120 126 164 41
is_linear=0
shrinkage=0.05


Tree=5
num_leaves=20
num_cat=0
split_feature=23 21 31 23 0 23 29 1 6 29 21 11 29 18 16 27 29 24 12
split_gain=0.0601279 0.0496603 0.047437 0.0634612 0.037536 0.0262724 0.0235958 0.0221155 0.0211595 0.0127862 0.0120055 0.0102474 0.00938036 0.00886306 0.00873892 0.00854677 0.00619113 0.00729334 0.0051136
threshold=68.595000000000013 1.7850000000000004 0.043222066199485279 70.445000000000007 25.879500000000004 70.15000000000002 0.60481807687474454 27.801375000000004 0.2141875 0.54003561018894819 1.6050000000000002 17685.520771631276 0.56921598403321083 4.6550000000000011 35.965000000000011 30.350000000000005 0.5736472133135605 12.875000000000002 20480.311122014155
decision_type=2 2 2 2 2 2 2 2 2 2 2 2 2 2 2 2 2 2 2
left_child=8 2 3 6 -4 11 9 13 16 -2 -8 -6 -7 -3 -10 18 -1 -18 -16
right_child=1 7 4 -5 5 12 10 -9 14 -11 -12 -13 -14 -15 15 -17 17 -19 -20
leaf_value=0.00026785292583928611 0.0015071163907123264 0.0013861329454396452 0.0010594531053515234 0.0030515508609823883 -0.0026027762587985089 0.00041408853500061446 -0.00086407542748090165 0.0026132337305170951 -0.00041878942458424719 0.00032343723713583136 7.6392183939493462e-05 -0.0011895358508057976 -0.00090898254400943528 0.00022516859218388075 -0.0025774314798499374 -0.0009222119407370753 -0.00097733825663080787 0.00019705103361047804 -0.0014866276106442371
leaf_weight=34 25 35 23 20 29 21 65 24 20 261 71 23 37 31 22 28 39 20 21
leaf_count=34 25 35 23 20 29 21 65 24 20 261 71 23 37 31 22 28 39 20 21
internal_value=6.119e-13 0.000221336 5.03932e-05 0.000299514 -0.000777511 -0.0011616 0.000169085 0.00131347 -0.000799938 0.000426906 -0.000373096 -0.00197769 -0.00042994 0.000840832 -0.00134198 -0.00160204 -0.00026955 -0.00057924 -0.00204471
internal_weight=849 665 575 442 133 110 422 90 184 286 136 52 58 66 91 71 93 59 43
internal_count=849 665 575 442 133 110 422 90 184 286 136 52 58 66 91 71 93 59 43
is_linear=0
shrinkage=0.05


Tree=6
num_leaves=19
num_cat=0
split_feature=15 23 23 2 23 9 18 15 15 13 23 5 10 30 12 20 19 12
split_gain=0.0783307 0.0561897 0.0433416 0.0322683 0.0376658 0.0335529 0.0309821 0.0190473 0.0182926 0.0141789 0.00981349 0.0154517 0.00892077 0.00808904 0.00570111 0.00361672 0.00223356 0.00189864
threshold=44.505000000000003 70.855000000000004 69.115000000000023 27.193875000000002 68.845000000000013 6.3648784017588023 5.1050000000000013 45.760000000000012 42.560000000000009 1209.5526159063268 68.015000000000015 0.19718750000000004 6.8261095007963339 220.26947096400161 20072.775414089232 1.2350000000000001 0.83500000000000008 20398.932425749783
decision_type=2 2 2 2 2 2 2 2 2 2 2 2 2 2 2 2 2 2
left_child=1 3 12 5 10 13 8 14 -6 -7 -5 -12 -2 -1 -4 17 -17 -14
right_child=2 -3 7 4 6 9 -8 -9 -10 -11 11 -13 15 -15 -16 16 -18 -19
leaf_value=-0.0024502606571574388 -0.00048949441331769196 0.0018324092674689989 0.00087079411227809821 -0.001587631434085779 -0.00089787049832571386 -0.00091648357867432596 0.0015908280780422503 0.0030093102427642972 0.00013970860303633628 0.00092297241790220144 0.00067014381987974049 -0.00082668298641801804 -0.00022564105805940928 -0.0013581914469026604 0.001826352094024144 0.0011484032350928092 0.00050279003476749208 0.00045506278263582361
leaf_weight=30 31 30 37 32 52 22 32 21 232 20 20 125 20 39 27 21 37 21
leaf_count=30 31 30 37 32 52 22 32 21 232 20 20 125 20 39 27 21 37 21
internal_value=7.96759e-13 -0.000279677 0.000824722 -0.000384582 -0.000211171 -0.00115478 0.000115917 0.00170266 -5.02707e-05 -4.05522e-05 -0.000795123 -0.000620224 0.000250684 -0.001833 0.00127392 0.000482457 0.000736547 0.000123012
internal_weight=849 634 215 604 493 111 316 85 284 42 177 145 130 69 64 99 58 41
internal_count=849 634 215 604 493 111 316 85 284 42 177 145 130 69 64 99 58 41
is_linear=0
shrinkage=0.05


Tree=7
num_leaves=21
num_cat=0
split_feature=20 23 23 23 2 23 23 29 17 19 4 31 22 17 9 11 29 29 21 12
split_gain=0.0613554 0.0492035 0.0417143 0.0294755 0.0350904 0.0264858 0.0216693 0.0187237 0.0171321 0.0113893 0.0109705 0.00972155 0.00741155 0.00736407 0.0062759 0.00500701 0.00479048 0.00399012 0.00210361 0.00167511
threshold=1.2250000000000003 70.985000000000014 69.185000000000016 68.545000000000016 26.328000000000007 69.945000000000007 69.785000000000011 0.60772481390720146 2.0650000000000004 1.385 1.4596875 0.064675507337393731 4.7650000000000006 2.2550000000000003 1.466826665901741 18486.750383061662 0.58031561049179226 0.57121168440205417 1.7050000000000003 20500.400691655825
decision_type=2 2 2 2 2 2 2 2 2 2 2 2 2 2 2 2 2 2 2 2
left_child=1 3 10 9 6 7 -5 -6 -4 13 16 -8 -7 19 -11 -10 17 -2 -12 -1
right_child=2 -3 8 4 5 12 11 -9 15 14 18 -13 -14 -15 -16 -17 -18 -19 -20 -21
leaf_value=-0.001284154411405325 -0.00037456778134748511 0.0020478536334374675 0.003008228380765234 -0.0020620876639441121 0.00014775705518568012 0.0018459964707620781 -0.0013577476404385553 -0.00062707627573897978 0.0018445290318049958 -0.0010737528103282269 0.00049523055258759996 -5.0197360740805209e-05 0.00058767315512523062 -5.5302312102867293e-05 -0.0022692833916239798 0.00076280947238125882 -0.00083169722114689653 0.00057771625857144088 0.0011073618677328342 -0.00068502764579534423
leaf_weight=28 22 23 21 32 262 22 21 111 20 23 32 44 25 32 21 23 20 22 25 20
leaf_count=28 22 23 21 32 262 22 21 111 20 23 32 44 25 32 21 23 20 22 25 20
internal_value=2.06409e-12 -0.00022436 0.000805269 -0.00030589 -0.000139841 5.81206e-05 -0.000996992 -8.28234e-05 0.00183762 -0.000998208 0.000259229 -0.000472637 0.00117668 -0.000642832 -0.00164435 0.00126593 -0.000190073 0.000101574 0.000763709 -0.00103452
internal_weight=849 664 185 641 517 420 97 373 64 124 121 65 47 80 44 43 64 44 57 48
internal_count=849 664 185 641 517 420 97 373 64 124 121 65 47 80 44 43 64 44 57 48
is_linear=0
shrinkage=0.05


Tree=8
num_leaves=18
num_cat=0
split_feature=15 23 23 2 4 9 23 23 15 13 23 11 12 12 0 15 13
split_gain=0.0658737 0.0450978 0.0282303 0.0326447 0.0296251 0.0290332 0.0271822 0.0178728 0.0178635 0.0141333 0.0136145 0.0115806 0.00680105 0.0055894 0.00525521 0.00305299 0.00280257
threshold=44.725000000000001 70.985000000000014 68.125000000000014 27.193875000000002 1.5900000000000001 6.3648784017588023 69.125000000000014 69.485000000000014 45.760000000000012 1209.5526159063268 68.845000000000013 17645.08567399556 19175.394557937281 20108.469961545841 26.999625000000005 45.485000000000007 1211.2621430474612
decision_type=2 2 2 2 2 2 2 2 2 2 2 2 2 2 2 2 2
left_child=1 2 14 5 10 11 12 -6 13 -7 -5 -4 -2 -8 -1 16 -14
right_child=6 -3 3 4 7 9 8 -9 -10 -11 -12 -13 15 -15 -16 -17 -18
leaf_value=-0.0019200243021865997 -0.00039072386571206155 0.0019454608367675025 -0.0022775623673463568 -0.00077765509634599144 0.00026066893871280094 -0.00085454082733992008 0.00067256994273823993 0.001556979535620057 0.0028736356715671719 0.00091810772798701446 -7.4400027147526596e-05 -0.00096270972757007587 -9.7095420245419848e-05 0.0017361432158698638 -0.00095940477314538199 0.00096827179882287356 0.00062308334616578318
leaf_weight=24 24 23 34 101 122 23 30 34 20 22 216 33 22 21 35 30 35
leaf_count=24 24 23 34 101 122 23 30 34 20 22 216 33 22 21 35 30 35
internal_value=1.01812e-12 -0.000230062 -0.000307759 -0.000202628 -2.08767e-05 -0.000970202 0.00084314 0.000543198 0.00160717 1.20874e-05 -0.000298466 -0.00162995 0.000354438 0.00111051 -0.00135017 0.00056 0.00034512
internal_weight=849 667 644 585 473 112 182 156 71 45 317 67 111 51 59 87 57
internal_count=849 667 644 585 473 112 182 156 71 45 317 67 111 51 59 87 57
is_linear=0
shrinkage=0.05


Tree=9
num_leaves=20
num_cat=0
split_feature=23 21 31 23 18 10 29 1 19 16 14 14 18 17 31 29 12 24 13
split_gain=0.0411429 0.0376787 0.0350983 0.0524315 0.0320062 0.0257083 0.0181374 0.0163468 0.0154906 0.014625 0.0127426 0.00953594 0.007599 0.00718091 0.00679222 0.00676076 0.00937131 0.00361095 0.00300483
threshold=68.545000000000016 1.7850000000000004 0.043222066199485279 70.445000000000007 5.0850000000000009 3.5531367811155117 0.56400540421218182 27.801375000000004 1.385 37.545000000000009 1267.1383674307033 1235.3785633005884 4.6550000000000011 1.9750000000000003 0.016226252961267115 0.58133144862320651 20783.852715520297 12.875000000000002 1211.3254584084232
decision_type=2 2 2 2 2 2 2 2 2 2 2 2 2 2 2 2 2 2 2
left_child=8 2 3 6 5 -4 13 12 15 -7 -8 -6 -3 -2 -10 16 18 -17 -1
right_child=1 7 4 -5 11 9 10 -9 14 -11 -12 -13 -14 -15 -16 17 -18 -19 -20
leaf_value=-0.00091953812397627024 0.0014378342630807311 0.0012175512508630555 0.00027435254332059148 0.0027396992873400454 -0.0002636619055093351 -0.0011398154646568319 -0.00020458409501492248 0.0022066061096265915 -0.00094462402084900538 -0.0026542370333336295 0.00060627347132648831 0.0012448549389227992 0.00015150333347264678 0.00046405381058903933 -0.0021018794538187132 -0.0011976994428550825 0.00074018966333824212 -0.00031805472448468211 -0.00010824241652153432
leaf_weight=21 25 35 22 20 22 44 271 25 32 25 59 20 32 78 21 28 24 20 25
leaf_count=21 25 35 22 20 22 44 271 25 32 25 59 20 32 78 21 28 24 20 25
internal_value=-1.00162e-12 0.000174802 2.71133e-05 0.000236786 -0.000687034 -0.00121398 0.000121178 0.00111552 -0.000693076 -0.00168852 -5.96126e-05 0.000454679 0.000708394 0.000700408 -0.00140316 -0.00037414 -6.07401e-05 -0.000831181 -0.000478617
internal_weight=849 678 586 453 133 91 433 92 171 69 330 42 67 103 53 118 70 48 46
internal_count=849 678 586 453 133 91 433 92 171 69 330 42 67 103 53 118 70 48 46
is_linear=0
shrinkage=0.05


Tree=10
num_leaves=19
num_cat=0
split_feature=15 23 15 6 23 18 23 15 4 15 28 16 12 24 15 22 8 12
split_gain=0.0566537 0.0362891 0.0305072 0.0290794 0.0285886 0.027506 0.019166 0.0132451 0.0117457 0.0107807 0.0106646 0.0101159 0.00923482 0.00855636 0.00726036 0.00633235 0.00410846 0.00283707
threshold=45.340000000000011 70.985000000000014 43.215000000000011 0.29143750000000007 68.845000000000013 5.1050000000000013 69.185000000000016 41.185000000000009 1.4764375000000003 43.595000000000006 18.707741401233928 35.985000000000007 20526.443470311951 12.555000000000001 44.065000000000005 5.245000000000001 101.24440029576938 21263.523800756291
decision_type=2 2 2 2 2 2 2 2 2 2 2 2 2 2 2 2 2 2
left_child=1 2 3 5 12 10 16 -5 14 -10 -1 -9 15 -8 -6 -4 -2 -14
right_child=6 -3 4 7 8 -7 13 11 9 -11 -12 -13 17 -15 -16 -17 -18 -19
leaf_value=0.00032664134699319093 5.4283386392247247e-05 0.0018169321990369456 -0.00049528941663618974 -0.002030000012367964 -0.00036276733156245306 0.0012518437335860323 0.0012862491754016706 0.00017773912961432792 0.00018589923179670409 0.0011346146714376201 -0.00073035487687836095 -0.00095203939936827164 0.00039660812783103185 0.0027312954462831839 0.00041786991432137953 -0.0014127246282371814 0.00098944939369254785 -0.00027658098569030272
leaf_weight=35 24 23 68 25 53 33 21 23 49 77 75 143 29 20 68 26 23 34
leaf_count=35 24 23 68 25 53 33 21 23 49 77 75 143 29 20 68 26 23 34
internal_value=-1.35128e-12 -0.000138893 -0.000199847 -0.000553404 9.24511e-05 -1.42191e-05 0.00120111 -0.000957087 0.000427785 0.00076567 -0.000394038 -0.000795504 -0.000435112 0.00199115 7.59379e-05 -0.000749048 0.000511918 3.32997e-05
internal_weight=849 761 738 334 404 143 88 191 247 126 110 166 157 41 121 94 47 63
internal_count=849 761 738 334 404 143 88 191 247 126 110 166 157 41 121 94 47 63
is_linear=0
shrinkage=0.05


Tree=11
num_leaves=15
num_cat=0
split_feature=15 23 23 17 15 23 15 15 10 6 12 22 13 15
split_gain=0.0514971 0.0367633 0.0292234 0.0264009 0.0270114 0.0153954 0.014938 0.0145951 0.00600956 0.00530383 0.00435759 0.00266538 0.00176318 0.00156855
threshold=44.505000000000003 70.855000000000004 69.125000000000014 3.6550000000000007 41.185000000000009 68.545000000000016 42.935000000000009 45.760000000000012 6.8261095007963339 0.14250000000000002 20072.775414089232 4.6750000000000007 1217.5106582980509 45.305000000000007
decision_type=2 2 2 2 2 2 2 2 2 2 2 2 2 2
left_child=1 3 8 4 -1 9 -7 10 -2 -6 -4 -10 13 -13
right_child=2 -3 7 -5 5 6 -8 -9 11 -11 -12 12 -14 -15
leaf_value=-0.001841244036331773 -0.00038992664922261612 0.0014816355317210158 0.00067013131677716355 0.001279231278691441 -0.00013932208922873859 -0.00052037286163381807 7.6599752731218654e-05 0.0025805972650050535 -6.5995134907003884e-06 -0.00098915280327124128 0.0015104237314382638 0.00016039614495419864 0.00093413900202986863 0.0007359726357390173
leaf_weight=30 32 30 36 25 23 176 259 20 29 91 27 29 22 20
leaf_count=30 32 30 36 25 23 176 259 20 29 91 27 29 22 20
internal_value=-3.07986e-13 -0.000226768 0.000668703 -0.000311623 -0.000380312 -0.00030048 -0.000164934 0.00140383 0.000206462 -0.000817696 0.00103026 0.000397306 0.000562282 0.000395325
internal_weight=849 634 215 604 579 549 435 83 132 114 63 100 71 49
internal_count=849 634 215 604 579 549 435 83 132 114 63 100 71 49
is_linear=0
shrinkage=0.05


Tree=12
num_leaves=16
num_cat=0
split_feature=15 23 15 17 23 15 19 25 15 15 19 23 5 13 18
split_gain=0.046636 0.0299909 0.0254022 0.0315545 0.0240983 0.0174796 0.0169922 0.0134678 0.00954633 0.00789506 0.00875121 0.00713384 0.00702087 0.00578512 0.00209874
threshold=45.340000000000011 70.985000000000014 43.215000000000011 3.6550000000000007 68.845000000000013 41.185000000000009 0.88500000000000012 45.855000000000011 44.065000000000005 43.535000000000004 1.5250000000000001 69.335000000000022 0.62500000000000011 1205.2867504422927 5.0650000000000004
decision_type=2 2 2 2 2 2 2 2 2 2 2 2 2 2 2
left_child=1 2 3 5 9 -1 -2 -7 12 -4 -11 14 -6 -10 -8
right_child=6 -3 4 -5 8 7 11 -9 13 10 -12 -13 -14 -15 -16
leaf_value=-0.0017656335413771412 0.0022577623821827884 0.0016520038226862318 0.00052892040010192435 0.0012425852335278857 -9.1860654538322717e-05 -0.00030924451945676978 -2.395302296423799e-05 -0.0011031517218927749 0.00021483645541593434 -0.00036932102743582004 -0.0015010862647613977 0.0014087712945183739 0.00087520619702484946 0.0009482842532700644 0.00067638084394275213
leaf_weight=31 23 23 20 24 102 207 23 72 40 117 20 22 23 82 20
leaf_count=31 23 23 20 24 102 207 23 72 40 117 20 22 23 82 20
internal_value=1.30131e-13 -0.000126016 -0.000181429 -0.000504051 8.52942e-05 -0.000639275 0.00108975 -0.000514124 0.000393169 -0.000399069 -0.000534542 0.000676456 8.60796e-05 0.00070781 0.000301784
internal_weight=849 761 738 334 404 310 88 279 247 157 137 65 125 122 43
internal_count=849 761 738 334 404 310 88 279 247 157 137 65 125 122 43
is_linear=0
shrinkage=0.05


Tree=13
num_leaves=16
num_cat=0
split_feature=15 23 17 20 15 23 18 23 12 12 20 23 14 31 25
split_gain=0.0426073 0.0295226 0.0207455 0.0273617 0.0195323 0.0186725 0.0139057 0.0100632 0.00786802 0.00743016 0.00652078 0.00469762 0.00424322 0.00192464 0.000847685
threshold=44.725000000000001 70.855000000000004 3.6550000000000007 1.135 46.015000000000008 68.545000000000016 5.0450000000000008 69.655000000000015 19675.564584317417 20526.443470311951 1.1050000000000002 69.105000000000004 1250.3092450973686 0.007891903509665581 44.985000000000007
decision_type=2 2 2 2 2 2 2 2 2 2 2 2 2 2 2
left_child=1 2 3 6 8 9 10 -7 12 -5 -1 13 -2 14 -10
right_child=4 -3 -4 5 -6 7 -8 -9 11 -11 -12 -13 -14 -15 -16
leaf_value=-0.00208380795240653 -0.00048463837156305091 0.0013478039437904955 0.001154567783465609 -0.0010118405275869392 0.002007115652910822 -0.00013939628936008382 -0.00024676368543118267 0.00045789751621550358 0.00046668757680560125 -0.0001398331572873859 -0.0010850599519471871 0.0012071213420756521 0.00039087179639834852 0.00012174376473843079 0.0009056131043259732
leaf_weight=26 25 30 25 76 24 302 36 92 22 36 44 35 31 23 22
leaf_count=26 25 30 25 76 24 302 36 92 22 36 44 35 31 23 22
internal_value=5.34555e-12 -0.000185025 -0.000257215 -0.000314886 0.000678087 -0.000161868 -0.00104533 7.33302e-08 0.000476209 -0.000731552 -0.00145602 0.000737647 1.90428e-08 0.000492399 0.00068615
internal_weight=849 667 637 612 182 506 106 394 158 112 70 102 56 67 44
internal_count=849 667 637 612 182 506 106 394 158 112 70 102 56 67 44
is_linear=0
shrinkage=0.05


Tree=14
num_leaves=23
num_cat=0
split_feature=15 18 23 15 16 23 28 15 19 5 14 11 14 15 3 29 12 23 17 12 30 28
split_gain=0.0394621 0.0339168 0.0317699 0.0251714 0.0241139 0.020845 0.0196226 0.0152411 0.0145136 0.0105673 0.00991456 0.0152449 0.0140241 0.0073682 0.00704583 0.0068253 0.00644095 0.00618686 0.00449132 0.00791218 0.00384731 0.0026746
threshold=42.990000000000002 5.1050000000000013 68.845000000000013 45.795000000000009 37.525000000000013 70.530000000000015 11.259486149447937 44.065000000000005 1.6150000000000004 0.62500000000000011 1245.2409529010404 18314.565411744941 1261.8024190913236 41.795000000000009 6.525875000000001 0.58133144862320651 20004.497244511451 69.715000000000018 2.2250000000000005 20503.945759658771 228.91683953414923 20.730596200214176
decision_type=2 2 2 2 2 2 2 2 2 2 2 2 2 2 2 2 2 2 2 2 2 2
left_child=1 4 8 5 10 7 -3 9 15 -4 11 17 13 -12 -9 18 -14 -1 19 -2 -20 -17
right_child=2 6 3 -5 -6 -7 -8 14 -10 -11 12 -13 16 -15 -16 21 -18 -19 20 -21 -22 -23
leaf_value=-0.00094443073413068691 -0.00072588041334443814 0.0018941144316340797 -0.00021064509796063456 0.0022643246344523507 -0.0018584109783077087 0.0019609387542697649 -4.077172714843121e-05 0.0004392382817892819 -0.0015257304260740058 0.0008327273802327304 -0.0020439283805899324 0.0009257294468205566 0.00055579831358045341 -0.00091761486524636953 0.001157455312067265 -0.00019305455789435657 -0.00060259065716915456 0.00015796472900547089 0.00079525181565493841 0.00034506934560860308 -1.3313152261876634e-05 -0.00090661831661769808
leaf_weight=35 34 20 127 20 39 21 38 96 20 30 20 26 20 53 53 24 30 20 31 35 28 29
leaf_count=35 34 20 127 20 39 21 38 96 20 30 20 26 20 53 53 24 30 20 31 35 28 29
internal_value=-5.95617e-13 -0.000459953 0.000252638 0.000542386 -0.000719254 0.000437069 0.00062643 0.00033249 -0.000247574 -1.12746e-05 -0.000501474 -7.1936e-05 -0.000784341 -0.00122619 0.000694711 -0.000106341 -0.000139235 -0.00054356 9.12307e-05 -0.000182645 0.000411526 -0.000583495
internal_weight=849 301 548 347 243 327 58 306 201 157 204 81 123 73 149 181 50 55 128 69 59 53
internal_count=849 301 548 347 243 327 58 306 201 157 204 81 123 73 149 181 50 55 128 69 59 53
is_linear=0
shrinkage=0.05


Tree=15
num_leaves=21
num_cat=0
split_feature=20 15 18 23 23 10 4 20 24 9 25 6 15 17 20 15 13 3 10 13
split_gain=0.0374168 0.0258897 0.0308176 0.0297035 0.0215988 0.0268809 0.0191795 0.0182195 0.0160031 0.0137055 0.0119969 0.00984985 0.00914258 0.00729838 0.00719476 0.00684062 0.00602318 0.00542862 0.00417394 0.00332114
threshold=1.2624798218758702 42.990000000000002 5.0850000000000009 69.515000000000015 68.885000000000005 3.9999560706812836 1.4596875 1.1250000000000002 11.995000000000003 3.9034720876225175 45.855000000000011 0.36362500000000003 44.725000000000001 2.2150000000000003 1.175 42.425000000000004 1217.8341157910886 6.525875000000001 5.0006980800843932 1211.2621430474612
decision_type=2 2 2 2 2 2 2 2 2 2 2 2 2 2 2 2 2 2 2 2
left_child=1 2 7 6 -4 -6 12 13 -5 16 11 -9 18 -1 -8 -12 -10 -16 -3 -14
right_child=-2 3 4 8 5 -7 14 10 9 -11 15 -13 19 -15 17 -17 -18 -19 -20 -21
leaf_value=-0.00073118044296279546 0.0016007649863604458 -0.0013391765777487309 -0.00079601440083933996 0.0017959555584727037 -6.4578110773471143e-05 0.0024652872212408555 -0.00033997273071107863 3.3489378052763639e-05 0.00055273997601240274 -0.00054558566444029566 -0.0005899098939897324 -0.00087895080948891576 -0.00029175989106685544 -0.00192851517183174 0.00015727572663513202 -0.0018675724091008308 0.0015710770713485544 0.00074348196585688909 -0.00055224302185511126 0.00045861749104946723
leaf_weight=20 35 20 20 31 21 21 39 100 53 24 22 42 30 35 89 20 20 71 107 29
leaf_count=20 35 20 20 31 21 21 39 100 53 24 22 42 30 35 89 20 20 71 107 29
internal_value=9.35848e-13 -6.8829e-05 -0.000436955 0.000147167 0.000556365 0.00120035 -7.22094e-05 -0.000694636 0.00080701 0.000490956 -0.000455959 -0.000236387 -0.000437239 -0.00149312 0.000268974 -0.00119832 0.000831736 0.000417405 -0.00067617 7.70697e-05
internal_weight=849 814 301 513 62 42 385 239 128 97 184 142 186 55 199 42 73 160 127 59
internal_count=849 814 301 513 62 42 385 239 128 97 184 142 186 55 199 42 73 160 127 59
is_linear=0
shrinkage=0.05


Tree=16
num_leaves=18
num_cat=0
split_feature=20 15 23 18 16 25 25 23 23 29 8 3 26 11 17 10 7
split_gain=0.0337687 0.023375 0.0288823 0.0280327 0.0217924 0.0196852 0.0129963 0.0127812 0.0115574 0.0112686 0.00855057 0.00753664 0.00658357 0.00791243 0.00511393 0.00481939 0.00504461
threshold=1.2624798218758702 42.935000000000009 69.625000000000014 5.0850000000000009 37.525000000000013 45.605000000000011 46.165000000000006 68.230000000000004 70.560000000000016 0.60975902276107452 108.0273118884818 5.5070625000000009 16.575000000000003 18482.703120061298 2.0050000000000003 5.0002583135042586 1.1625654102776757
decision_type=2 2 2 2 2 2 2 2 2 2 2 2 2 2 2 2 2
left_child=1 3 7 4 6 -5 10 15 12 11 -1 -9 -4 -14 -11 -3 -17
right_child=-2 2 8 5 -6 -7 -8 9 -10 14 -12 -13 13 -15 -16 16 -18
leaf_value=-0.00013792963002170263 0.0015207267512700388 -0.0012751469939046177 0.0012913228042889387 0.0011944206084500855 -0.0018139847767694546 -0.00070435666323949897 -0.0014456321453226026 -0.00014944816800340526 0.0019044288895591827 -0.001200486456408449 -0.0011446080026216805 0.00036288673171939036 -5.8029055917570592e-05 0.0011078031950587915 -0.00012129083902220287 -0.00092672353070652632 0.00013232200062307327
leaf_weight=135 35 23 25 39 36 21 29 115 21 23 25 191 43 22 21 22 23
leaf_count=135 35 23 25 39 36 21 29 115 21 23 25 191 43 22 21 22 23
internal_value=1.50104e-12 -6.53875e-05 0.000131278 -0.000430427 -0.0006865 0.000529849 -0.000471741 -5.91061e-05 0.000848221 6.27615e-05 -0.000295223 0.000170343 0.000601772 0.00033656 -0.000685416 -0.000686366 -0.000385434
internal_weight=849 814 529 285 225 60 189 418 111 350 160 306 90 65 44 68 45
internal_count=849 814 529 285 225 60 189 418 111 350 160 306 90 65 44 68 45
is_linear=0
shrinkage=0.05


Tree=17
num_leaves=17
num_cat=0
split_feature=15 15 19 18 19 23 10 19 25 4 24 23 23 30 12 9
split_gain=0.0314835 0.0221239 0.0277919 0.0251818 0.0217748 0.0188887 0.0241348 0.0140241 0.0156193 0.0114168 0.0106188 0.00853595 0.0079509 0.00552349 0.00523058 0.01435
threshold=45.975000000000001 42.990000000000002 1.7750000000000001 5.0850000000000009 1.5650000000000002 68.885000000000005 3.9999560706812836 1.3550000000000002 45.270000000000003 1.4764375000000003 12.515000000000002 69.52500000000002 68.765000000000015 219.72688703500771 19000.179282949761 2.5645966846452835
decision_type=2 2 2 2 2 2 2 2 2 2 2 2 2 2 2 2
left_child=1 3 4 7 9 -5 -7 14 10 11 -9 -3 -11 -10 -1 -16
right_child=-2 2 -4 5 -6 6 -8 8 13 12 -12 -13 -14 -15 15 -17
leaf_value=-0.00080322379431249028 0.0017130522643968177 -0.00025242334325715398 -0.0015965341159079054 -0.00076229137877817268 0.0016003206133501846 -9.3944865650319987e-05 0.0023032158042215522 -0.0012929600527665267 -0.0022976163464287921 -5.558042330309175e-05 7.2546624578535558e-05 0.00041434562026552161 0.00060515814452389216 -0.0012473775043843254 -0.00051289740968347779 0.0008011427381256174
leaf_weight=34 26 192 22 20 27 21 21 24 21 65 35 64 152 31 63 31
leaf_count=34 26 192 22 20 27 21 21 24 21 65 35 64 152 31 63 31
internal_value=-1.16381e-12 -5.41183e-05 0.000142738 -0.00039551 0.000219266 0.000502401 0.00110464 -0.00062844 -0.00103973 0.000140432 -0.000482914 -8.57311e-05 0.000407241 -0.00167151 -0.000271771 -7.95437e-05
internal_weight=849 823 522 301 500 62 42 239 111 473 59 256 217 52 128 94
internal_count=849 823 522 301 500 62 42 239 111 473 59 256 217 52 128 94
is_linear=0
shrinkage=0.05


Tree=18
num_leaves=13
num_cat=0
split_feature=20 23 15 14 25 23 23 6 13 23 15 17
split_gain=0.0292502 0.0221429 0.0199478 0.0196059 0.0130725 0.0128496 0.0105629 0.00548715 0.00488805 0.0058216 0.00356666 0.00207072
threshold=1.2624798218758702 70.985000000000014 44.295000000000009 1270.5023770426076 46.70000000000001 68.895000000000024 69.77500000000002 0.36362500000000003 1212.3947962272641 68.295000000000016 45.340000000000011 2.1650000000000005
decision_type=2 2 2 2 2 2 2 2 2 2 2 2
left_child=1 2 3 4 6 8 -1 10 9 -4 -7 -10
right_child=-2 -3 5 -5 -6 7 -8 -9 11 -11 -12 -13
leaf_value=-0.00038327331582114875 0.0014153324810156067 0.0014353223334182986 -0.0010832313736457201 0.00110566486697644 -0.0012610632581968925 0.00029528282944168619 0.00016669407267012762 0.001388047964289962 -8.6853616622924491e-05 -3.0199577283513337e-05 0.00095902626896437646 0.00056444129261832979
leaf_weight=396 35 24 21 25 35 67 112 21 23 35 29 26
leaf_count=396 35 24 21 25 35 67 112 21 23 35 29 26
internal_value=-1.71272e-12 -6.08558e-05 -0.000106309 -0.000263384 -0.000326416 0.000295575 -0.000262021 0.000655938 -0.000105971 -0.000425087 0.000495789 0.000258731
internal_weight=849 814 790 568 543 222 508 117 105 56 96 49
internal_count=849 814 790 568 543 222 508 117 105 56 96 49
is_linear=0
shrinkage=0.05


Tree=19
num_leaves=14
num_cat=0
split_feature=15 23 19 4 15 14 21 23 23 19 26 14 9
split_gain=0.0271797 0.0199067 0.0209323 0.0205172 0.0141255 0.0161181 0.0101351 0.00954396 0.00911579 0.00569886 0.00517838 0.00342131 0.00339653
threshold=45.975000000000001 71.045000000000016 1.5750000000000004 2.0082500000000003 44.065000000000005 1270.5023770426076 1.7350000000000001 69.765000000000015 69.105000000000004 1.7750000000000001 16.315000000000001 1242.5187858433649 0.98870015174336012
decision_type=2 2 2 2 2 2 2 2 2 2 2 2 2
left_child=1 2 4 7 5 6 -1 9 12 -4 -10 -9 -6
right_child=-2 -3 3 -5 8 -7 -8 11 10 -11 -12 -13 -14
leaf_value=-0.00036720608593732791 0.0015916640017307007 0.0014693812031986281 -0.0010793384649358424 0.00054847359625945008 0.00023591802834763508 0.0011555333228898234 0.00024584949263699795 1.3388242805376649e-05 0.001283381661400199 -0.0021373639542071033 0.00046584120488638974 -0.00091145043203141548 -0.00025598004848299236
leaf_weight=312 26 21 35 26 94 22 86 20 25 20 86 20 56
leaf_count=312 26 21 35 26 94 22 86 20 25 20 86 20 56
internal_value=1.69172e-12 -5.02834e-05 -9.00751e-05 -0.000696075 1.75988e-05 -0.000161913 -0.000234737 -0.00103669 0.000306469 -0.00146408 0.000649972 -0.000449031 5.22761e-05
internal_weight=849 823 802 121 681 420 398 95 261 55 111 40 150
internal_count=849 823 802 121 681 420 398 95 261 55 111 40 150
is_linear=0
shrinkage=0.05


Tree=20
num_leaves=16
num_cat=0
split_feature=20 28 23 20 18 23 30 4 19 21 28 12 28 18 20
split_gain=0.0249888 0.0188783 0.0715673 0.0292251 0.0203618 0.0156849 0.0129755 0.00883307 0.0127355 0.0116378 0.00756011 0.0064315 0.00609074 0.00390659 0.0023411
threshold=1.2624798218758702 10.459680236367975 69.475000000000009 1.135 5.0450000000000008 68.545000000000016 220.74599270557709 1.4764375000000003 0.99500000000000011 1.7550000000000001 11.262023717306617 20526.443470311951 12.06978547052273 4.6050000000000013 1.2150000000000001
decision_type=2 2 2 2 2 2 2 2 2 2 2 2 2 2 2
left_child=1 2 -1 4 10 11 -6 8 -7 -9 -3 13 -12 -5 -13
right_child=-2 3 -4 5 6 7 -8 9 -10 -11 12 14 -14 -15 -16
leaf_value=-0.00087995356409789702 0.0013081781035621785 -0.00068331541875997341 0.0028006261391565206 -0.0011213167206251991 0.00075223357465195779 0.00026118192145683377 -0.00092886634520255034 0.00016786352187692603 -0.00048907181805937555 0.00097921969980234273 -0.0023389483899033318 -0.00031309039489618349 -0.0011575113295111805 -0.00045247010189608565 0.00040098178803666751
leaf_weight=28 35 23 25 34 24 120 22 225 107 55 24 24 20 61 22
leaf_count=28 35 23 25 34 24 120 22 225 107 55 24 24 20 61 22
internal_value=-2.32869e-12 -5.62484e-05 0.000856169 -0.000119794 -0.000861794 9.598e-06 -5.17707e-05 0.000139325 -9.24619e-05 0.000327237 -0.00141793 -0.000456865 -0.00180193 -0.000691847 2.84224e-05
internal_weight=849 814 53 761 113 648 46 507 227 280 67 141 44 95 46
internal_count=849 814 53 761 113 648 46 507 227 280 67 141 44 95 46
is_linear=0
shrinkage=0.05


Tree=21
num_leaves=13
num_cat=0
split_feature=15 23 19 18 15 14 23 24 23 17 0 20
split_gain=0.0234272 0.0175304 0.0178293 0.0138179 0.0124975 0.014447 0.00935241 0.00853437 0.00808602 0.00665799 0.00583443 0.00420706
threshold=45.975000000000001 70.985000000000014 1.5750000000000004 5.2250000000000005 44.065000000000005 1270.5023770426076 70.15000000000002 11.605000000000002 69.105000000000004 2.0650000000000004 26.999625000000005 1.2350000000000001
decision_type=2 2 2 2 2 2 2 2 2 2 2 2
left_child=1 2 4 6 5 7 10 -1 11 -10 -4 -6
right_child=-2 -3 3 -5 8 -7 -8 -9 9 -11 -12 -13
leaf_value=-0.00097171971100449032 0.0014777125544452039 0.0012847938979878867 -0.0014575582344780113 0.0005126324238344317 -0.00017795005468625196 0.0010901516255464893 3.4614048144292261e-05 -0.00015407887984321902 0.0011899935198016465 0.00034991805728463695 -0.00052807247372402353 0.00035978432476235133
leaf_weight=35 26 24 52 21 88 22 21 362 34 77 25 62
leaf_count=35 26 24 52 21 88 22 21 362 34 77 25 62
internal_value=7.34452e-13 -4.66835e-05 -8.66778e-05 -0.000651283 1.21281e-05 -0.000157049 -0.000900693 -0.000226163 0.000283718 0.000607238 -0.00115578 4.43135e-05
internal_weight=849 823 799 119 680 419 98 397 261 111 77 150
internal_count=849 823 799 119 680 419 98 397 261 111 77 150
is_linear=0
shrinkage=0.05


Tree=22
num_leaves=13
num_cat=0
split_feature=15 23 19 4 14 15 23 23 14 23 19 5
split_gain=0.0213446 0.0163175 0.0159692 0.0138645 0.00970405 0.0104471 0.00902262 0.00858189 0.00820439 0.00772312 0.00521074 0.00342842
threshold=45.590000000000011 70.855000000000004 1.5750000000000004 2.0082500000000003 1270.694331613068 44.065000000000005 69.205000000000013 68.845000000000013 1235.3785633005884 69.765000000000015 1.7750000000000001 0.38475000000000004
decision_type=2 2 2 2 2 2 2 2 2 2 2 2
left_child=1 2 4 9 5 8 -2 -7 -1 10 -4 -6
right_child=6 -3 3 -5 11 7 -8 -9 -10 -11 -12 -13
leaf_value=0.0002365575846000221 0.00036854293403766034 0.0010752334352582694 -0.00094254543011110009 0.00039316609877278094 0.0011496013072742658 -0.00014844331321203048 0.0016139713113751406 0.00049978916479523252 -0.00033348993760934782 -0.00037615423883638672 -0.0019542463416291865 0.00024508687449269927
leaf_weight=79 33 30 35 25 22 90 26 118 314 37 20 20
leaf_count=79 33 30 35 25 22 90 26 118 314 37 20 20
internal_value=1.18181e-12 -6.85129e-05 -0.000113661 -0.000650962 -1.58936e-05 -6.72422e-05 0.000917376 0.000219304 -0.0002189 -0.000934693 -0.00131044 0.00071888
internal_weight=849 790 760 117 643 601 59 208 393 92 55 42
internal_count=849 790 760 117 643 601 59 208 393 92 55 42
is_linear=0
shrinkage=0.05


Tree=23
num_leaves=21
num_cat=0
split_feature=15 18 23 16 25 16 23 25 12 15 8 11 19 0 27 3 27 15 22 9
split_gain=0.0202749 0.0203846 0.0174912 0.0168441 0.0160137 0.0134822 0.0145314 0.0109207 0.00936339 0.00933081 0.00737488 0.0084612 0.00637483 0.00608784 0.00565898 0.00517045 0.00491159 0.00472948 0.00439765 0.000575537
threshold=42.990000000000002 5.0850000000000009 68.945000000000007 37.705000000000005 45.605000000000011 35.725000000000001 70.530000000000015 45.755000000000003 18533.200661964245 43.765000000000008 107.94964889919601 17519.218407094864 1.3650000000000004 27.872375000000005 27.975000000000005 6.525875000000001 31.265000000000004 45.135000000000012 4.7550000000000008 0.84185186937921974
decision_type=2 2 2 2 2 2 2 2 2 2 2 2 2 2 2 2 2 2 2 2
left_child=1 3 8 7 14 -4 9 10 -2 13 11 -1 -9 -7 -3 -11 17 18 -10 -19
right_child=2 4 5 -5 -6 6 -8 12 16 15 -12 -13 -14 -15 -16 -17 -18 19 -20 -21
leaf_value=-0.00063157309009395071 -0.0010586684187874199 0.0016688354423968121 0.0015653448364901124 -0.0016915384434729017 -0.00060534125527324668 8.4822011581013907e-05 0.00163199465489015 -0.00050281002435700179 -3.0428401180816924e-05 0.00023361218060561386 -0.00088676760361219463 0.00025014007881206152 -0.0016133170014654753 -0.00080006605838626945 0.00047940443739207694 0.00080225030174273454 0.00060818424947053874 0.00053086510659860716 -0.00059228611570364656 0.00015608726840582676
leaf_weight=39 25 20 24 28 22 77 20 28 85 97 30 90 24 26 20 68 26 21 59 20
leaf_count=39 25 20 24 28 22 77 20 28 85 97 30 90 24 26 20 68 26 21 59 20
internal_value=-4.74351e-13 -0.000329687 0.000181087 -0.00053926 0.000478182 0.000426767 0.000331885 -0.000386351 -0.000143709 0.000234862 -0.00018064 -1.64244e-05 -0.00101535 -0.000138548 0.00107412 0.00046796 -3.53014e-05 -0.000125737 -0.000260634 0.000348047
internal_weight=849 301 548 239 62 312 288 211 236 268 159 129 52 103 40 165 211 185 144 41
internal_count=849 301 548 239 62 312 288 211 236 268 159 129 52 103 40 165 211 185 144 41
is_linear=0
shrinkage=0.05


Tree=24
num_leaves=19
num_cat=0
split_feature=15 15 4 25 18 25 9 22 9 25 23 18 10 15 18 15 8 13
split_gain=0.0190032 0.0140784 0.0185955 0.0184633 0.0184374 0.0139082 0.011511 0.0110263 0.012124 0.0103902 0.00766167 0.00632965 0.0062463 0.00600805 0.00596713 0.00594125 0.00426748 0.00375278
threshold=45.975000000000001 42.935000000000009 1.4764375000000003 43.805000000000007 5.0850000000000009 45.605000000000011 4.1860200118819533 4.6950000000000012 2.6177219787554944 44.525000000000013 69.625000000000014 4.4450000000000012 5.0002583135042586 44.595000000000006 4.3750000000000009 43.685000000000009 94.842111205340544 1216.7115752316133
decision_type=2 2 2 2 2 2 2 2 2 2 2 2 2 2 2 2 2 2
left_child=1 4 10 -4 6 -6 7 17 -9 -8 12 -5 -3 -14 -12 -13 -11 -1
right_child=-2 2 3 11 5 -7 9 8 -10 16 14 15 13 -15 -16 -17 -18 -19
leaf_value=-0.0011229569095626681 0.0013308927501874189 -0.00099930590807032014 0.0015592825952016058 0.0010853278050143714 0.0010112103421796258 -0.00058481411598179309 -0.00031744217740197205 -0.00038118080542930827 0.00081988635989974307 -0.00096805830147456042 0.0010490702610695735 -0.0001399486075470854 -0.00042695796747321168 0.00013337344675164788 -4.5437122709258938e-05 0.00040368896316220405 -0.0019142486298313506 -0.0002687280903046485
leaf_weight=36 26 28 31 21 39 21 32 55 34 22 20 87 119 80 33 119 26 20
leaf_count=36 26 28 31 21 39 21 32 55 34 22 20 87 119 80 33 119 26 20
internal_value=-2.83856e-12 -4.20452e-05 0.000108469 0.000414702 -0.000326174 0.000452602 -0.000533848 -0.000268206 7.76538e-05 -0.00101532 -0.000173703 0.000258394 -0.000300082 -0.000201699 0.000367585 0.000174094 -0.00148058 -0.000817875
internal_weight=849 823 538 258 285 60 225 145 89 80 280 227 227 199 53 206 48 56
internal_count=849 823 538 258 285 60 225 145 89 80 280 227 227 199 53 206 48 56
is_linear=0
shrinkage=0.05


Tree=25
num_leaves=16
num_cat=0
split_feature=14 15 23 4 6 10 26 12 15 23 24 23 21 17 11
split_gain=0.0183657 0.0157845 0.0173384 0.0145743 0.0132113 0.0152405 0.0132889 0.0125652 0.0112761 0.00690471 0.00665485 0.00521364 0.00442418 0.00465533 0.00206101
threshold=1272.8143590241266 42.935000000000009 70.560000000000016 1.8735625 0.29143750000000007 6.9997914140568795 17.365000000000006 20480.311122014155 44.725000000000001 69.375000000000014 12.335000000000003 68.765000000000015 1.5850000000000002 2.2550000000000003 18025.637639517674
decision_type=2 2 2 2 2 2 2 2 2 2 2 2 2 2 2
left_child=1 4 3 8 5 10 12 -7 11 -10 -1 -3 13 -6 -14
right_child=-2 2 -4 -5 6 7 -8 -9 9 -11 -12 -13 14 -15 -16
leaf_value=1.2464841226271044e-05 0.0013083788087197509 -0.00045421369472933295 0.0015241742577581179 0.0010928192074061373 -0.00058197310662733246 0.00040486491184723992 0.0003053481057753332 -0.0011377865956588224 0.0001520100781141082 0.0009216537151491809 0.001106708133628479 -3.383420456952148e-05 -0.00076281594264568115 -0.001474706397857517 -0.00019726952935646602
leaf_weight=24 26 112 21 32 23 22 31 33 125 38 33 216 49 40 24
leaf_count=24 26 112 21 32 23 22 31 33 125 38 33 216 49 40 24
internal_value=1.2262e-12 -4.1334e-05 0.000115481 5.89182e-05 -0.000347096 7.3041e-05 -0.000628864 -0.000520726 -8.4644e-06 0.000331436 0.000645974 -0.000177378 -0.000841809 -0.00114879 -0.000576883
internal_weight=849 823 544 523 279 112 167 55 491 163 57 328 136 63 73
internal_count=849 823 544 523 279 112 167 55 491 163 57 328 136 63 73
is_linear=0
shrinkage=0.05


Tree=26
num_leaves=12
num_cat=0
split_feature=20 28 16 20 18 30 0 4 11 28 28
split_gain=0.0173228 0.0171449 0.0302238 0.0204105 0.0141032 0.01086 0.00928391 0.0127442 0.00907671 0.00709875 0.00605101
threshold=1.2624798218758702 10.459680236367975 37.275000000000013 1.135 5.0450000000000008 220.74599270557709 25.560250000000007 1.8735625 19016.897532084422 11.345625874782245 12.06978547052273
decision_type=2 2 2 2 2 2 2 2 2 2 2
left_child=1 2 -1 4 9 -6 -5 8 -8 -3 -11
right_child=-2 3 -4 6 5 -7 7 -9 -10 10 -12
leaf_value=-0.00022277835911760726 0.0010891899218092606 -0.00054402575255013425 0.0021863404762647721 -0.0010333807326831101 0.00068220850735087888 -0.00085575861978048288 3.1102569525671186e-05 0.00093553334638174328 -0.00075821564204465509 -0.0021929464158823805 -0.00097773699089884767
leaf_weight=30 35 26 23 21 24 22 551 37 39 21 20
leaf_count=30 35 26 23 21 24 22 551 37 39 21 20
internal_value=2.43346e-12 -4.68325e-05 0.000822688 -0.00010739 -0.000727478 -5.3341e-05 7.42044e-07 3.53777e-05 -2.10727e-05 -0.00119032 -0.00160016
internal_weight=849 814 53 761 113 46 648 627 590 67 41
internal_count=849 814 53 761 113 46 648 627 590 67 41
is_linear=0
shrinkage=0.05


Tree=27
num_leaves=14
num_cat=0
split_feature=14 15 19 19 25 18 16 14 16 19 27 17 27
split_gain=0.0160421 0.0136659 0.0148994 0.0208118 0.0119683 0.0154621 0.0116811 0.0118715 0.00907079 0.00811835 0.0077293 0.00543587 0.00380894
threshold=1272.8143590241266 42.990000000000002 1.7750000000000001 1.5650000000000002 45.585000000000008 5.1350000000000007 37.525000000000013 1245.610071749431 35.405000000000008 1.405 28.405000000000005 2.5450000000000004 28.785000000000004
decision_type=2 2 2 2 2 2 2 2 2 2 2 2 2
left_child=1 4 3 8 5 6 7 -1 -3 12 -11 -10 -6
right_child=-2 2 -4 -5 9 -7 -8 -9 11 10 -12 -13 -14
leaf_value=0.00043403068298406873 0.0012228129059971811 0.0010856904695339671 -0.0011309062173772281 0.0015208999121872088 6.7460238933563237e-05 0.00088626470704074366 -0.0012296392174903305 -0.00048057186341752693 -1.70527580532272e-05 -0.0020200959523208441 -0.00064666301955834833 0.0005172370963178024 -0.00085828945360844956
leaf_weight=59 26 22 23 27 25 33 28 89 402 20 21 54 20
leaf_count=59 26 22 23 27 25 33 28 89 402 20 21 54 20
internal_value=1.31609e-12 -3.86308e-05 0.000113663 0.000170347 -0.000311211 -0.00010692 -0.000293142 -0.000115967 9.40602e-05 -0.000807688 -0.00131663 4.62184e-05 -0.000343984
internal_weight=849 823 528 505 295 209 176 148 478 86 41 456 45
internal_count=849 823 528 505 295 209 176 148 478 86 41 456 45
is_linear=0
shrinkage=0.05


Tree=28
num_leaves=15
num_cat=0
split_feature=15 28 23 20 18 30 4 23 18 20 25 28 28 20
split_gain=0.0157046 0.0155576 0.0569985 0.0176467 0.0117694 0.00977455 0.00921876 0.00905807 0.00894881 0.00766453 0.00638513 0.00634823 0.00530524 0.00475456
threshold=45.975000000000001 10.459680236367975 69.475000000000009 1.135 5.0450000000000008 220.74599270557709 1.4596875 69.615000000000023 4.3550000000000013 1.175 43.560000000000009 11.345625874782245 12.06978547052273 1.2350000000000001
decision_type=2 2 2 2 2 2 2 2 2 2 2 2 2 2
left_child=1 2 -1 4 11 -6 7 13 -8 -10 -9 -3 -13 -5
right_child=-2 3 -4 6 5 -7 8 10 9 -11 -12 12 -14 -15
leaf_value=-0.00075898485042021752 0.0012098820376335287 -0.00048406196247714647 0.0025256768949329855 -0.00049263613505640287 0.00064123978493929221 -0.00081784426279641177 0.0010321124847645737 -0.00047419430484296754 -0.00021000242670725719 0.0002861908064571262 0.00057705216358254594 -0.0020378633003149712 -0.00090000034833792597 3.9350064863746028e-05
leaf_weight=28 26 26 25 168 24 22 28 20 124 209 52 21 20 56
leaf_count=28 26 26 25 168 24 22 28 20 124 209 52 21 20 56
internal_value=-1.61545e-13 -3.82223e-05 0.000790384 -9.52562e-05 -0.000672421 -5.6583e-05 4.01261e-06 -0.000202826 0.000173609 0.000101422 0.000285039 -0.00109524 -0.00148281 -0.00035964
internal_weight=849 823 53 770 113 46 657 296 361 333 72 67 41 224
internal_count=849 823 53 770 113 46 657 296 361 333 72 67 41 224
is_linear=0
shrinkage=0.05


Tree=29
num_leaves=20
num_cat=0
split_feature=14 28 23 21 20 15 4 20 18 12 23 30 31 14 23 24 3 15 16
split_gain=0.0142717 0.0174284 0.0510572 0.0151616 0.00898324 0.00843652 0.00668624 0.00647935 0.0079574 0.00838093 0.00611778 0.00423981 0.00416451 0.00441275 0.00315741 0.00310799 0.00248666 0.00389679 0.00209636
threshold=1264.6059317634429 10.097647809640959 69.385000000000005 1.5850000000000002 1.2450000000000003 41.795000000000009 1.8735625 1.175 4.9750000000000005 19440.417938226994 68.795000000000016 222.33768349224445 0.024720864410593148 1269.5298789845751 68.595000000000013 12.555000000000001 6.8537500000000016 44.395000000000003 36.885000000000012
decision_type=2 2 2 2 2 2 2 2 2 2 2 2 2 2 2 2 2 2 2
left_child=1 2 -1 7 12 -5 10 8 9 -3 -7 -10 13 14 -2 -15 17 -9 -16
right_child=4 3 -4 5 -6 6 -8 16 11 -11 -12 -13 -14 15 18 -17 -18 -19 -20
leaf_value=-0.00074178199182547955 -0.00064451819537983586 -0.00166813119689727 0.002712466921657324 -0.0009233299274152766 0.0012490309774875641 -0.0002686189750445717 0.0008171415010180612 -0.00090043506453461614 0.00013142241520108656 -0.00047645116517378488 0.00014459400142190334 -0.00082030080560467795 0.00071206251631264353 3.676764783449471e-05 0.00029561055648751007 0.00087300794996554045 0.00018035656351087339 -4.1469782140226133e-05 -0.00033975687634665521
leaf_weight=23 21 36 20 24 26 144 26 23 25 25 237 22 37 20 37 25 27 31 20
leaf_count=23 21 36 20 24 26 144 26 23 25 25 237 22 37 20 37 25 27 31 20
internal_value=-1.85198e-12 -0.000108581 0.000864845 -0.000176093 0.000387039 -1.23587e-05 4.13595e-05 -0.000549476 -0.00080301 -0.00117974 -1.1581e-05 -0.000314065 0.000246965 0.000107058 -0.000120416 0.000501346 -0.000211431 -0.000407325 7.26746e-05
internal_weight=849 663 43 620 186 431 407 189 108 61 381 47 160 123 78 45 81 54 57
internal_count=849 663 43 620 186 431 407 189 108 61 381 47 160 123 78 45 81 54 57
is_linear=0
shrinkage=0.05


Tree=30
num_leaves=14
num_cat=0
split_feature=15 28 23 20 25 22 10 10 30 21 28 12 27
split_gain=0.0137226 0.0127896 0.0477412 0.0148455 0.00979459 0.00823491 0.00808009 0.00717312 0.00935321 0.00669336 0.0108621 0.00827304 0.00395428
threshold=46.015000000000008 10.459680236367975 69.475000000000009 1.135 44.425000000000004 5.245000000000001 5.0006980800843932 4.0000431274057773 222.33768349224445 1.7550000000000001 19.803454915900158 19000.179282949761 30.070000000000004
decision_type=2 2 2 2 2 2 2 2 2 2 2 2 2
left_child=1 2 -1 4 -3 9 -7 -6 -9 11 -11 -5 -8
right_child=-2 3 -4 5 7 6 12 8 -10 10 -12 -13 -14
leaf_value=-0.00070091615988141192 0.0011785697960779848 0.00012524888607003958 0.0023052002480253579 -0.00035875622407894394 -0.00147542492627646 -0.0013113367975512078 -0.00050320491039504607 0.00027359643219304939 -0.0011333564123897641 0.00092935545264346588 -3.0147831689996218e-05 0.00011574568441420821 0.00032535263162571939
leaf_weight=28 24 32 25 127 33 21 36 21 27 54 65 332 24
leaf_count=28 24 32 25 127 33 21 36 21 27 54 65 332 24
internal_value=-1.94925e-12 -3.42857e-05 0.000717063 -8.58679e-05 -0.000615364 4.92584e-06 -0.000467222 -0.000907952 -0.000517815 7.10919e-05 0.000405257 -1.55435e-05 -0.000171782
internal_weight=849 825 53 772 113 659 81 81 48 578 119 459 60
internal_count=849 825 53 772 113 659 81 81 48 578 119 459 60
is_linear=0
shrinkage=0.05


Tree=31
num_leaves=13
num_cat=0
split_feature=20 28 17 20 18 30 0 11 28 15 28 3
split_gain=0.0127443 0.0118006 0.0264116 0.0129637 0.0102743 0.00819821 0.00705258 0.00637468 0.00562558 0.00552103 0.00459322 0.00124478
threshold=1.2624798218758702 10.459680236367975 2.3950000000000005 1.135 5.0450000000000008 220.74599270557709 25.560250000000007 19016.897532084422 11.345625874782245 45.135000000000012 12.06978547052273 7.3988750000000012
decision_type=2 2 2 2 2 2 2 2 2 2 2 2
left_child=1 2 -1 4 8 -6 -5 9 -3 -8 -10 -9
right_child=-2 3 -4 6 5 -7 7 11 10 -11 -12 -13
leaf_value=0.0021149529138347134 0.00093422508050155422 -0.00040430730508747868 -0.00018772487669731631 -0.00090555614802897684 0.00062988029506717185 -0.00070638121370310812 8.8097959339657644e-06 -0.00078260534210130574 -0.0018609567606333822 0.00045605393350342641 -0.00080220030096825226 -0.00025338425533846023
leaf_weight=20 35 26 33 21 24 22 502 25 21 80 20 20
leaf_count=20 35 26 33 21 24 22 502 25 21 80 20 20
internal_value=2.46131e-12 -4.01694e-05 0.00068121 -9.041e-05 -0.000584596 -9.2013e-06 -4.23251e-06 2.59554e-05 -0.000979643 7.02867e-05 -0.00134449 -0.000547396
internal_weight=849 814 53 761 113 46 648 627 67 582 41 45
internal_count=849 814 53 761 113 46 648 627 67 582 41 45
is_linear=0
shrinkage=0.05


Tree=32
num_leaves=10
num_cat=0
split_feature=14 13 28 17 15 4 24 28 8
split_gain=0.0123294 0.0106079 0.0108911 0.0247262 0.0131861 0.00842511 0.0083503 0.00897862 0.00549386
threshold=1272.8143590241266 1231.1279277924878 10.459680236367975 2.3950000000000005 42.935000000000009 1.8735625 11.675000000000002 15.317224546792666 99.793758733929366
decision_type=2 2 2 2 2 2 2 2 2
left_child=1 2 3 -1 6 8 -4 -8 -6
right_child=-2 -3 4 -5 5 -7 7 -9 -10
leaf_value=0.0020092052576364951 0.0010720142429748263 0.00087346437428477072 -0.0013599593737374316 -0.00023189096173155123 -0.00027939442184624996 0.00085045895177935217 -0.00059941370657017826 7.5319692971081371e-05 8.5878189996286235e-05
leaf_weight=20 26 31 22 32 149 29 126 81 333
leaf_count=20 26 31 22 32 149 29 126 81 333
internal_value=2.27749e-13 -3.38668e-05 -6.9381e-05 0.000630069 -0.000118532 2.27612e-05 -0.000433818 -0.000335388 -2.7038e-05
internal_weight=849 823 792 52 740 511 229 207 482
internal_count=849 823 792 52 740 511 229 207 482
is_linear=0
shrinkage=0.05


Tree=33
num_leaves=13
num_cat=0
split_feature=20 23 21 17 19 20 7 23 23 5 19 16
split_gain=0.0112208 0.0118405 0.00887782 0.00970872 0.00884013 0.00835863 0.00585153 0.00589343 0.00511402 0.00356583 0.00287329 0.00199216
threshold=1.2624798218758702 70.985000000000014 1.5850000000000002 3.3650000000000007 1.7550000000000001 1.155 1.0024959922586945 69.765000000000015 68.905000000000015 0.41937500000000005 1.0250000000000001 37.485000000000007
decision_type=2 2 2 2 2 2 2 2 2 2 2 2
left_child=1 2 6 4 5 -4 7 -1 9 -8 -10 -9
right_child=-2 -3 3 -5 -6 -7 8 11 10 -11 -12 -13
leaf_value=-0.0011515264810239186 0.00087661013597555991 0.0010563920329635342 -0.00045169929585730042 0.0010013078181073071 -0.00098824961301447324 0.00012013349303540761 -0.0001486461307944705 -0.00060803910045334226 0.00060655312753667774 -0.0008756276363255307 -6.1401701099964777e-05 8.1454473547637473e-05
leaf_weight=36 35 24 75 25 22 432 37 22 21 31 69 20
leaf_count=36 35 24 75 25 22 432 37 22 21 31 69 20
internal_value=-4.28502e-16 -3.76921e-05 -7.09301e-05 3.84683e-05 -7.03454e-06 3.55428e-05 -0.000327738 -0.000682086 -0.000152807 -0.000480064 9.44544e-05 -0.000279709
internal_weight=849 814 790 554 529 507 236 78 158 68 90 42
internal_count=849 814 790 554 529 507 236 78 158 68 90 42
is_linear=0
shrinkage=0.05


Tree=34
num_leaves=19
num_cat=0
split_feature=14 28 17 21 6 16 24 15 14 7 25 10 13 10 24 24 28 18
split_gain=0.0110809 0.0123835 0.0329633 0.0119997 0.00863742 0.011809 0.00611504 0.0100237 0.0057498 0.00513135 0.00751147 0.00432945 0.00342841 0.00291598 0.00297023 0.00259292 0.00182825 0.00338413
threshold=1264.6059317634429 10.097647809640959 2.5350000000000006 1.5850000000000002 0.12262500000000001 36.345000000000006 14.935 41.795000000000009 1242.8464744905334 1.0024959922586945 44.645000000000003 8.1044927711660986 1215.6715986723614 4.0000657981052319 11.945000000000002 12.555000000000001 18.523748559922783 4.6850000000000014
decision_type=2 2 2 2 2 2 2 2 2 2 2 2 2 2 2 2 2 2
left_child=1 2 -1 9 5 -2 7 -5 -9 10 -3 -7 16 -11 -15 -14 -6 -18
right_child=4 3 -4 6 12 11 -8 8 -10 13 -12 -13 15 14 -16 -17 17 -19
leaf_value=0.0022094253430259415 0.0016787409823640093 -0.00034317696975179118 -0.00056606913289136208 -0.0010877801338210703 0.0002442875804263167 -0.00015385441402031576 0.00082525240113249143 0.00029697059745861527 -0.00011947100244958449 0.00026392917818157002 -0.0013892964339902393 0.00081721025265075954 9.2157082840928757e-05 2.8947975179421365e-05 -0.00057158529005545469 0.00083218564061098748 3.8672445656697233e-05 -0.00081944309786194944
leaf_weight=20 24 37 23 22 20 24 21 120 268 20 32 22 29 29 71 20 27 20
leaf_count=20 24 37 23 22 20 24 21 120 268 20 32 22 29 29 71 20 27 20
internal_value=-1.16767e-13 -9.5676e-05 0.000724859 -0.000152584 0.000341039 0.000779656 -6.92023e-06 -4.95437e-05 9.32537e-06 -0.000484759 -0.000828334 0.000310568 7.63562e-05 -0.000287204 -0.000397431 0.00039421 -0.000156104 -0.000326483
internal_weight=849 663 43 620 186 70 431 410 388 189 69 46 116 120 100 49 67 47
internal_count=849 663 43 620 186 70 431 410 388 189 69 46 116 120 100 49 67 47
is_linear=0
shrinkage=0.05


Tree=35
num_leaves=18
num_cat=0
split_feature=23 28 31 25 15 13 4 23 29 12 14 10 27 23 17 10 25
split_gain=0.0109277 0.0154977 0.0192838 0.0142182 0.0108898 0.00879352 0.00812262 0.00651681 0.00648573 0.00584048 0.00563633 0.00539303 0.00387645 0.00606748 0.00852021 0.00333315 0.00247595
threshold=68.865000000000023 10.097647809640959 0.040836455426665384 44.525000000000013 45.795000000000009 1204.679660717826 1.4764375000000003 69.965000000000018 0.58924546162726255 18533.200661964245 1234.0571138132809 4.0000431274057773 30.145000000000003 68.110000000000014 2.7750000000000004 6.0699366395174819 45.690000000000005
decision_type=2 2 2 2 2 2 2 2 2 2 2 2 2 2 2 2 2
left_child=9 -2 4 5 6 -4 7 -3 11 -1 -8 -5 13 -11 15 -15 -14
right_child=1 2 3 8 -6 -7 10 -9 -10 12 -12 -13 16 14 -16 -17 -18
leaf_value=-0.00091225149692036227 0.0011166806672573896 -0.00020461021014185301 -0.00053315485152415933 -0.0011932746066873811 0.0013575388093158836 0.00079300655127735814 0.001179986913339235 0.00057784710443229412 -0.001712357587097185 -0.00086308886438408615 0.00029521344511724439 -0.00011050108068561911 0.00064820565028293504 0.00015290646445641364 0.00080291263459782527 -0.00039512221741130237 -0.00011959176270119358
leaf_weight=30 37 158 25 23 20 25 20 32 21 35 180 23 21 36 21 121 21
leaf_count=30 37 158 25 23 20 25 20 32 21 35 180 23 21 36 21 121 21
internal_value=2.32714e-12 0.000127516 5.80675e-05 -0.00050812 0.000219638 0.000129926 0.000161284 -7.28279e-05 -0.000984274 -0.000252347 0.000383691 -0.000651888 -0.000174711 -0.000261277 -0.000142944 -0.00026946 0.000264307
internal_weight=849 564 527 117 410 50 390 190 67 285 200 46 255 213 178 157 42
internal_count=849 564 527 117 410 50 390 190 67 285 200 46 255 213 178 157 42
is_linear=0
shrinkage=0.05


Tree=36
num_leaves=15
num_cat=0
split_feature=21 23 19 11 11 18 19 23 29 28 30 23 18 19
split_gain=0.0103073 0.0102161 0.00741944 0.0116214 0.0112951 0.00881919 0.00828715 0.00686122 0.00584312 0.00916101 0.00774581 0.00651903 0.00409707 0.00392355
threshold=1.8450000000000004 70.845000000000013 1.3650000000000004 18512.481077339817 18898.347152062455 5.2550000000000008 1.7550000000000001 69.015000000000015 0.6078359833769621 18.707741401233928 210.6640975591564 68.915000000000006 4.4150000000000009 1.0850000000000002
decision_type=2 2 2 2 2 2 2 2 2 2 2 2 2 2
left_child=1 2 8 5 -5 6 -4 -2 10 12 -1 -12 -10 -11
right_child=7 -3 3 4 -6 -7 -8 -9 9 13 11 -13 -14 -15
leaf_value=0.000942053407628986 0.00018417829647660256 0.00084879162135503947 -0.0004491919841565651 0.0012647513682687921 -0.00030819643335416912 0.0003851849865895929 -0.0013898325593410326 0.0014266654467792251 0.0008482874437634434 -0.0003536946153846137 -0.00013486514557249375 0.00028601141838173916 -0.00013938247603142547 -0.0011191910034871067
leaf_weight=27 25 31 143 21 25 26 28 20 21 70 194 175 21 22
leaf_count=27 25 31 143 21 25 26 28 20 21 70 194 175 21 22
internal_value=-9.9948e-14 -4.12161e-05 -7.69085e-05 -0.000305679 0.000409888 -0.000472766 -0.000603215 0.000736395 2.79807e-05 -0.000257417 0.000124555 6.47376e-05 0.000354452 -0.000536748
internal_weight=849 804 773 243 46 197 171 45 530 134 396 369 42 92
internal_count=849 804 773 243 46 197 171 45 530 134 396 369 42 92
is_linear=0
shrinkage=0.05


Tree=37
num_leaves=15
num_cat=0
split_feature=14 23 28 2 2 25 20 23 4 12 25 11 27 25
split_gain=0.00955381 0.0096316 0.0535941 0.0147057 0.0122096 0.00837369 0.00765885 0.00681973 0.00638146 0.00643487 0.00637406 0.0043179 0.00281393 0.00146083
threshold=1272.8143590241266 69.955000000000013 11.042826783343472 26.794375000000006 27.193875000000002 44.525000000000013 1.2350000000000001 69.375000000000014 1.4764375000000003 19934.223972493022 44.035000000000004 17645.08567399556 30.070000000000004 46.435000000000009
decision_type=2 2 2 2 2 2 2 2 2 2 2 2 2 2
left_child=1 4 -3 5 11 -4 8 13 12 -10 -5 -1 -6 -8
right_child=-2 2 3 10 6 -7 7 -9 9 -11 -12 -13 -14 -15
leaf_value=-0.00114492861562342 0.00094366461047544503 0.0027455473178997639 -2.4335482992361956e-05 -9.7289444820489738e-05 -0.00042931616532210269 -0.0011704241552312549 0.00023484910337560595 0.0010764896035349617 0.00034669086767369697 -0.00014050194735462735 0.0010629884549416603 -0.0002845728935208172 2.4533219402655959e-05 -0.00024747006656980372
leaf_weight=35 26 20 34 20 166 30 73 24 102 202 29 25 43 20
leaf_count=35 26 20 34 20 166 30 73 24 102 202 29 25 43 20
internal_value=1.63902e-12 -2.9812e-05 0.000359787 -6.24713e-05 -0.000104909 -0.000561565 -4.00002e-05 0.000325046 -0.000123256 2.29641e-05 0.000589406 -0.000786447 -0.00033594 0.000131125
internal_weight=849 823 133 113 690 64 630 117 513 304 49 60 209 93
internal_count=849 823 133 113 690 64 630 117 513 304 49 60 209 93
is_linear=0
shrinkage=0.05


Tree=38
num_leaves=10
num_cat=0
split_feature=15 23 19 20 24 17 20 18 18
split_gain=0.00927888 0.00908188 0.00844583 0.00742936 0.00686302 0.00629929 0.00568483 0.0035308 0.00670924
threshold=46.015000000000008 70.845000000000013 1.5750000000000004 1.0850000000000002 16.115000000000006 1.7950000000000002 1.1150000000000004 4.6250000000000009 4.8350000000000009
decision_type=2 2 2 2 2 2 2 2 2
left_child=1 2 4 -4 5 -1 -7 -5 -9
right_child=-2 -3 3 7 -6 6 -8 8 -10
leaf_value=0.00072538075463078849 0.00096913730120983628 0.0007976404158398509 0.00032771733597959006 -0.0012126196419227531 0.00089579197533783464 -0.0006646276936711123 -1.7521840743119808e-05 0.00026128568708719242 -0.00080690274391636944
leaf_weight=27 24 32 24 22 21 36 593 21 49
leaf_count=27 24 32 24 22 21 36 593 21 49
internal_value=9.16779e-13 -2.81931e-05 -6.1518e-05 -0.000455721 6.02639e-06 -2.2457e-05 -5.45581e-05 -0.000660096 -0.000486446
internal_weight=849 825 793 116 677 656 629 92 70
internal_count=849 825 793 116 677 656 629 92 70
is_linear=0
shrinkage=0.05


Tree=39
num_leaves=16
num_cat=0
split_feature=21 30 14 31 31 7 20 14 22 8 11 28 4 13 15
split_gain=0.00875746 0.00812939 0.0283805 0.0102968 0.0117728 0.00952532 0.00709446 0.00710866 0.00643414 0.00600407 0.00676889 0.00636998 0.00581901 0.0050438 0.00322047
threshold=1.8450000000000004 211.81159290770128 1234.2462831452119 0.043969634894567768 0.034189374513495928 1.0024959922586945 1.1150000000000004 1264.3648758475977 4.7150000000000007 94.842111205340544 17569.655344219707 11.345625874782245 1.5098750000000003 1204.2977772624045 43.235000000000007
decision_type=2 2 2 2 2 2 2 2 2 2 2 2 2 2 2
left_child=1 2 -1 4 6 8 -3 -8 -4 10 -5 -11 -2 -6 -10
right_child=12 3 5 9 13 -7 7 -9 14 11 -12 -13 -14 -15 -16
leaf_value=0.0020547827554401009 9.7422348864545884e-05 -0.00094985835426284577 -0.00082539296728260957 -0.00065421068455531989 0.0013305923723964952 0.00064654462158871006 -0.00016965730599206708 0.00025859535536025096 -0.00032756836084272005 -0.0005202757545003596 0.0004642577880683045 -0.001617809166200459 0.0012348551098156073 0.0002984660922485436 0.00055896914607728838
leaf_weight=20 22 23 34 31 20 39 350 134 21 39 24 20 23 29 20
leaf_count=20 22 23 34 31 20 39 350 134 21 39 24 20 23 29 20
internal_value=1.70415e-12 -3.79912e-05 0.000317522 -0.000109094 -2.03375e-05 1.27397e-05 -9.18639e-05 -5.10915e-05 -0.000316839 -0.000541976 -0.000166152 -0.000892321 0.000678777 0.000719742 0.000104889
internal_weight=849 804 134 670 556 114 507 484 75 114 55 59 45 49 41
internal_count=849 804 134 670 556 114 507 484 75 114 55 59 45 49 41
is_linear=0
shrinkage=0.05


Tree=40
num_leaves=18
num_cat=0
split_feature=23 28 23 22 15 21 13 5 26 25 15 1 8 8 25 27 13
split_gain=0.00856762 0.0129918 0.0206912 0.0132498 0.012026 0.00624373 0.00519337 0.00389641 0.00479842 0.00450547 0.00337108 0.00262202 0.00247002 0.00196212 0.00180837 0.00152253 0.00129499
threshold=68.865000000000023 10.459680236367975 69.625000000000014 4.4150000000000009 45.760000000000012 1.3950000000000002 1226.8229155670631 0.38975000000000004 16.305000000000003 44.205000000000005 44.635000000000012 26.373875000000002 104.9078590262128 104.60306872147986 46.425000000000004 29.875000000000004 1212.3947962272641
decision_type=2 2 2 2 2 2 2 2 2 2 2 2 2 2 2 2 2
left_child=7 2 -2 -3 5 -5 -7 9 11 -1 12 -9 15 -10 16 -11 -12
right_child=1 3 -4 4 -6 6 -8 8 13 10 14 -13 -14 -15 -16 -17 -18
leaf_value=0.00057292487674757194 -9.9216949258168984e-05 -0.0011026474960090127 0.0021228683704975992 -0.00074093293636299986 0.0011920795693489104 3.2262129874492105e-05 0.00061617242699001172 -0.00047656984269534323 0.00010143317959670727 -0.00078394112015043249 -2.9629254131577907e-05 -0.0012485242506954819 -1.976412779185921e-05 -0.00045671135208067429 -0.00026718170241413951 -0.0002454200365935408 0.00051015988473955077
leaf_weight=23 22 24 20 24 24 408 42 22 31 35 20 22 30 32 24 21 25
leaf_count=23 22 24 20 24 24 408 42 22 31 35 20 22 30 32 24 21 25
internal_value=-5.67684e-13 0.000112909 0.000958919 4.48394e-05 0.00010014 4.48519e-05 8.67604e-05 -0.000223441 -0.000461892 -8.01031e-05 -0.000177004 -0.000862547 -0.000385868 -0.000182069 8.33196e-05 -0.000581996 0.000270254
internal_weight=849 564 42 522 498 474 450 285 107 178 155 44 86 63 69 56 45
internal_count=849 564 42 522 498 474 450 285 107 178 155 44 86 63 69 56 45
is_linear=0
shrinkage=0.05


Tree=41
num_leaves=9
num_cat=0
split_feature=25 28 17 15 22 1 30 15
split_gain=0.00824521 0.0121126 0.0210757 0.0129371 0.00753613 0.0057538 0.00595636 0.00586528
threshold=47.055000000000007 10.459680236367975 2.5350000000000006 45.895000000000003 4.4150000000000009 28.951000000000004 223.70256947085878 41.525000000000013
decision_type=2 2 2 2 2 2 2 2
left_child=1 2 -1 4 -3 7 -7 -6
right_child=-2 3 -4 -5 5 6 -8 -9
leaf_value=0.0020398189993284179 -0.0008004107680584815 -0.00081634502688933538 -0.00010165808909934843 0.0011508434438956495 -0.00068746687369688564 0.00095053825986854325 9.1099192107119766e-05 -3.8171585876061103e-05
leaf_weight=20 31 31 27 23 37 28 72 580
leaf_count=20 31 31 27 23 37 28 72 580
internal_value=1.4162e-13 3.03334e-05 0.000809609 -1.7171e-05 -5.30859e-05 -2.00859e-05 0.000331742 -7.71083e-05
internal_weight=849 818 47 771 748 717 100 617
internal_count=849 818 47 771 748 717 100 617
is_linear=0
shrinkage=0.05


Tree=42
num_leaves=20
num_cat=0
split_feature=21 23 19 5 23 15 14 26 18 15 26 12 12 16 18 15 14 16 12
split_gain=0.00781735 0.00941621 0.0143335 0.011593 0.00684425 0.00682933 0.00632945 0.00739931 0.00561834 0.0054181 0.00522336 0.00461165 0.00454219 0.00381109 0.00321902 0.00321311 0.00291515 0.00248221 0.00237491
threshold=1.5850000000000002 68.865000000000023 1.655 0.31975000000000003 69.195000000000007 42.205000000000005 1264.7336787118591 17.365000000000006 4.3950000000000005 44.395000000000003 16.985000000000003 18533.200661964245 19024.437537877886 37.185000000000009 4.9750000000000005 42.725000000000001 1245.2409529010404 36.815000000000005 20514.165477653547
decision_type=2 2 2 2 2 2 2 2 2 2 2 2 2 2 2 2 2 2 2
left_child=6 11 3 4 -3 16 7 9 -7 13 -8 -2 -13 17 -15 -14 -5 -1 -17
right_child=1 2 -4 5 -6 8 10 -9 -10 -11 -12 12 15 14 -16 18 -18 -19 -20
leaf_value=-0.00056547575674669229 -0.0008329095546682568 0.00026665126798824143 0.0013168530875881171 -9.0093097811483826e-05 0.0015151433418909817 0.00055120941904147696 0.00080602341840858578 0.00035895422699996427 1.6801190663806473e-05 7.6507794936852799e-05 -0.00027375856325739903 0.00062951008905656638 -0.00061037979223990332 -0.0012741586395408847 -0.00054128743539532201 -0.00028312023279078967 -0.00087007977516623215 5.9775188889365056e-05 0.00012561674217989081
leaf_weight=57 23 21 29 23 23 66 24 31 193 35 21 20 33 31 29 66 25 22 77
leaf_count=57 23 21 29 23 23 66 24 31 193 35 21 20 33 31 29 66 25 22 77
internal_value=1.91754e-13 9.80172e-05 0.000248513 0.000160246 0.000919272 5.14603e-05 -0.000234849 -0.000352722 0.000152982 -0.000479515 0.000302125 -0.000163117 -8.45193e-05 -0.00061952 -0.000919938 -0.000165659 -0.000496336 -0.000391355 -6.30311e-05
internal_weight=849 599 380 351 44 307 250 205 259 174 45 219 196 139 60 176 48 79 143
internal_count=849 599 380 351 44 307 250 205 259 174 45 219 196 139 60 176 48 79 143
is_linear=0
shrinkage=0.05


Tree=43
num_leaves=13
num_cat=0
split_feature=14 23 28 19 24 10 17 10 15 15 4 24
split_gain=0.00752047 0.00806631 0.0296337 0.0113127 0.0099731 0.00900743 0.020903 0.00891287 0.00888644 0.00761676 0.0055567 0.00479729
threshold=1272.8143590241266 69.805000000000021 10.895773373131988 1.7950000000000002 16.115000000000006 4.0000431274057773 2.2750000000000004 3.5004590494232382 42.990000000000002 42.630000000000003 1.4764375000000003 11.655000000000003
decision_type=2 2 2 2 2 2 2 2 2 2 2 2
left_child=1 3 -3 4 8 7 9 -4 11 -7 -10 -1
right_child=-2 2 5 -5 -6 6 -8 -9 10 -11 -12 -13
leaf_value=-0.0010459782565400626 0.00083724395506298887 0.0019518257670468936 0.00012944604351650924 -0.0012461246606627746 0.0010048525873571634 -0.00099168499466031792 0.0014762803687955496 -0.0012195205483294558 -0.00014341266962474678 0.00018511832152150667 0.00021914125220969186 -0.00029054211736150422
leaf_weight=24 26 23 25 21 21 20 27 24 228 44 197 169
leaf_count=24 26 23 25 21 21 20 27 24 228 44 197 169
internal_value=-2.24578e-12 -2.645e-05 0.000288532 -0.000104241 -6.67143e-05 1.52767e-05 0.000309572 -0.000531272 -0.000103127 -0.000182633 2.46417e-05 -0.000384482
internal_weight=849 823 163 660 639 140 91 49 618 64 425 193
internal_count=849 823 163 660 639 140 91 49 618 64 425 193
is_linear=0
shrinkage=0.05


Tree=44
num_leaves=9
num_cat=0
split_feature=21 23 17 15 28 4 9 24
split_gain=0.00739301 0.00789635 0.00646904 0.00872316 0.00644691 0.00767715 0.00509584 0.00489575
threshold=1.8450000000000004 70.845000000000013 3.6550000000000007 40.995000000000012 11.06157068196941 1.8735625 5.0516887856547035 13.005000000000001
decision_type=2 2 2 2 2 2 2 2
left_child=1 2 3 -1 6 -6 -5 -2
right_child=7 -3 -4 4 5 -7 -8 -9
leaf_value=-0.0010736030490079429 9.0416797717228871e-05 0.00074755694987552787 0.00072490471613127739 -0.0011185291537549348 -6.4944649825830875e-05 0.00067568255471996965 -4.7751577803865074e-05 0.0011337206175085158
leaf_weight=22 22 31 25 25 644 37 20 23
leaf_count=22 22 31 25 25 644 37 20 23
internal_value=-3.99792e-13 -3.49064e-05 -6.62859e-05 -9.27294e-05 -6.3006e-05 -2.4705e-05 -0.000642628 0.000623661
internal_weight=849 804 773 748 726 681 45 45
internal_count=849 804 773 748 726 681 45 45
is_linear=0
shrinkage=0.05


Tree=45
num_leaves=11
num_cat=0
split_feature=25 28 23 20 4 22 15 13 24 24
split_gain=0.00707896 0.0121051 0.0281502 0.0103398 0.00900776 0.00667516 0.00621557 0.00507472 0.00456528 0.00171538
threshold=46.70000000000001 10.459680236367975 69.475000000000009 1.2450000000000003 1.5098750000000003 4.4150000000000009 43.915000000000006 1231.1279277924878 15.475000000000003 12.775
decision_type=2 2 2 2 2 2 2 2 2 2
left_child=1 2 -1 5 9 -3 -2 8 -7 -5
right_child=6 3 -4 4 -6 7 -8 -9 -10 -11
leaf_value=-0.00040900698184724089 -0.0010145517150616094 -0.00078764909736609334 0.0020647789930476196 -6.9636730521808432e-05 0.001321869936073199 -9.2446341233198845e-05 -2.1149866734049285e-05 0.00070988139209062374 0.00057257595989439224 0.00052429887240577953
leaf_weight=23 31 31 23 31 25 584 32 22 27 20
leaf_count=23 31 31 23 31 25 584 32 22 27 20
internal_value=9.46507e-13 4.08752e-05 0.000827886 -8.0471e-06 0.000544395 -7.12784e-05 -0.000509967 -3.61955e-05 -6.30591e-05 0.000163279
internal_weight=849 786 46 740 76 664 63 633 611 51
internal_count=849 786 46 740 76 664 63 633 611 51
is_linear=0
shrinkage=0.05


Tree=46
num_leaves=13
num_cat=0
split_feature=31 28 29 25 20 24 20 14 17 14 13 10
split_gain=0.00704312 0.0258947 0.00700315 0.00787027 0.00658562 0.00656286 0.00721243 0.00533143 0.00512522 0.00476554 0.00465143 0.00206917
threshold=0.043969634894567768 11.170228843383351 0.58842600508425458 46.165000000000006 1.0950000000000004 16.115000000000006 1.1150000000000004 1264.0491284203611 2.2050000000000005 1242.8464744905334 1205.7290289725327 3.9515351145775774
decision_type=2 2 2 2 2 2 2 2 2 2 2 2
left_child=1 -1 3 4 -2 6 -3 9 -6 -8 -9 -10
right_child=2 5 -4 -5 8 -7 7 10 11 -11 -12 -13
leaf_value=0.0018389726592431543 0.00084395724171329109 -0.00084761980855546431 -0.00096961771359929119 -0.0010068072006106377 0.00049505143792235435 0.00086326403966681528 0.0001698338852697311 -0.00016524846048807687 -5.2398234367414956e-05 -0.00017619297399596126 0.00041952292141377999 -0.0006995150345998506
leaf_weight=20 21 25 32 21 21 22 144 47 21 322 123 30
leaf_count=20 21 25 32 21 21 22 144 47 21 322 123 30
internal_value=7.67232e-13 6.56292e-05 -0.000316009 -0.00013254 6.48749e-05 1.37012e-05 -1.45748e-05 1.81707e-05 -0.000162357 -6.92662e-05 0.000257851 -0.000433055
internal_weight=849 703 146 114 93 683 661 636 72 466 170 51
internal_count=849 703 146 114 93 683 661 636 72 466 170 51
is_linear=0
shrinkage=0.05


Tree=47
num_leaves=10
num_cat=0
split_feature=23 14 24 29 25 17 22 23 8
split_gain=0.00648892 0.00769596 0.0063062 0.00792654 0.00598624 0.00553867 0.00516639 0.0050488 0.00278499
threshold=70.985000000000014 1267.1383674307033 12.145000000000001 0.56662884537505864 47.145000000000003 1.7950000000000002 4.4450000000000012 69.955000000000013 105.34630594233934
decision_type=2 2 2 2 2 2 2 2 2
left_child=1 4 -3 -4 5 -1 -7 -8 -5
right_child=-2 2 3 8 -6 6 7 -9 -10
leaf_value=0.0006865434913985762 0.00081044513790402568 -0.00023357117399538049 0.0014510203835379799 0.00057472494924858889 -0.00089751663644247772 -0.00072778123042856657 -0.00011419881496945292 0.00028833573715918658 -0.00010130995360668749
leaf_weight=24 24 33 20 39 22 30 541 91 25
leaf_count=24 24 33 20 39 22 30 541 91 25
internal_value=5.66693e-13 -2.35766e-05 0.000352086 0.000582166 -8.56564e-05 -5.96201e-05 -8.66714e-05 -5.62389e-05 0.000310649
internal_weight=849 825 117 84 708 686 662 632 64
internal_count=849 825 117 84 708 686 662 632 64
is_linear=0
shrinkage=0.05


Tree=48
num_leaves=14
num_cat=0
split_feature=9 23 29 11 23 30 20 10 21 15 31 28 14
split_gain=0.00661571 0.0284268 0.00667487 0.00655878 0.0071722 0.00909138 0.00641966 0.00618423 0.00615214 0.00605002 0.00543259 0.00395881 0.00173242
threshold=4.3897223465045956 70.445000000000007 0.58842600508425458 19016.897532084422 69.205000000000013 236.04882685324199 1.0950000000000004 3.5004590494232382 1.6050000000000002 44.065000000000005 0.035663422014656637 23.03169400600526 1246.9000291786665
decision_type=2 2 2 2 2 2 2 2 2 2 2 2 2
left_child=1 3 6 4 10 9 -2 -8 -9 -6 11 -1 -5
right_child=2 -3 -4 12 5 -7 7 8 -10 -11 -12 -13 -14
leaf_value=-0.00015967386753193216 0.00058616593759506944 0.0019216324031003753 -0.00091986986033803359 -0.00018164128938224166 -2.6991265792730703e-05 0.0012986257173179185 0.00044864997151307763 -0.00098466554301086112 -2.1149481181055311e-05 0.00054094971313355241 0.00061459693652405234 0.00051687734641904092 -0.00078240760912497837
leaf_weight=361 25 20 34 20 128 20 20 37 30 74 27 23 30
leaf_count=361 25 20 34 20 128 20 20 37 30 74 27 23 30
internal_value=-2.04481e-12 6.36067e-05 -0.000306271 9.19896e-06 5.27456e-05 0.000281747 -0.00012 -0.000322921 -0.00055324 0.000181066 -7.09488e-05 -0.000119151 -0.000542101
internal_weight=849 703 146 683 633 222 112 87 67 202 411 384 50
internal_count=849 703 146 683 633 222 112 87 67 202 411 384 50
is_linear=0
shrinkage=0.05


Tree=49
num_leaves=11
num_cat=0
split_feature=21 23 25 21 13 23 18 29 24 29
split_gain=0.00615783 0.00609003 0.00488431 0.0050335 0.00533679 0.00529162 0.00626143 0.00461111 0.00415498 0.00354707
threshold=1.8450000000000004 70.985000000000014 47.145000000000003 1.5850000000000002 1188.1985066194532 68.765000000000015 5.0650000000000004 0.61101498805592225 13.005000000000001 0.58133144862320651
decision_type=2 2 2 2 2 2 2 2 2 2
left_child=1 2 3 4 -1 9 -7 -6 -2 -5
right_child=8 -3 -4 5 7 6 -8 -9 -10 -11
leaf_value=-0.00086042033408061959 7.7935022272868085e-05 0.00077003017118524599 -0.00075771716777429292 -4.9177942154854283e-06 -1.8044919830351842e-05 8.2169541250181981e-05 0.00070782951901808555 -0.00061052355478040691 0.0010390720473799815 -0.00048107606641276454
leaf_weight=29 22 23 24 109 165 306 46 41 23 61
leaf_count=29 22 23 24 109 165 306 46 41 23 61
internal_value=1.89398e-13 -3.18572e-05 -5.54724e-05 -3.32083e-05 -0.000225366 5.32995e-05 0.000163932 -0.000135965 0.000569183 -0.000175775
internal_weight=849 804 781 757 235 522 352 206 45 170
internal_count=849 804 781 757 235 522 352 206 45 170
is_linear=0
shrinkage=0.05


Tree=50
num_leaves=11
num_cat=0
split_feature=31 31 24 20 25 13 18 19 29 24
split_gain=0.00619707 0.0200941 0.00759825 0.00615327 0.0060637 0.00688616 0.00496643 0.00625976 0.00484671 0.00326229
threshold=0.043969634894567768 0.039451223857252436 16.180000000000003 1.1150000000000004 44.645000000000003 1210.423383327591 5.285000000000001 0.95500000000000007 0.56934806588689024 12.165000000000001
decision_type=2 2 2 2 2 2 2 2 2 2
left_child=1 2 3 -1 5 -2 7 -5 -6 -10
right_child=4 -3 -4 6 8 -7 -8 -9 9 -11
leaf_value=-0.00078723884979262949 -0.00038934743842171312 0.0014834173796164883 0.00097141097532585277 0.00019139832254271114 -0.00014261502270956577 0.00063372185919935626 0.00078788925355183887 -0.00013759905099471555 -0.00049829842808487071 -0.0013499511894263813
leaf_weight=25 38 24 20 233 34 29 20 381 22 23
leaf_count=25 38 24 20 233 34 29 20 381 22 23
internal_value=-1.32278e-12 6.15613e-05 1.13043e-05 -1.7834e-05 -0.000296422 5.34736e-05 1.25053e-05 -1.27515e-05 -0.000593169 -0.000933588
internal_weight=849 703 679 659 146 67 634 614 79 45
internal_count=849 703 679 659 146 67 634 614 79 45
is_linear=0
shrinkage=0.05


Tree=51
num_leaves=15
num_cat=0
split_feature=9 23 24 23 8 21 29 26 12 9 25 13 27 15
split_gain=0.00564952 0.0248642 0.00689903 0.00651348 0.00689486 0.0072806 0.00583047 0.00627148 0.00432884 0.00422105 0.00367221 0.00365598 0.00361463 0.00244815
threshold=4.3897223465045956 70.445000000000007 16.180000000000003 68.865000000000023 106.60993371596821 1.5050000000000001 0.58842600508425458 17.685000000000006 18533.200661964245 6.3648784017588023 44.185000000000009 1208.2230626719922 30.145000000000003 42.145000000000003
decision_type=2 2 2 2 2 2 2 2 2 2 2 2 2 2
left_child=1 2 3 8 5 -5 7 9 -1 13 -6 -11 -10 -2
right_child=6 -3 -4 4 10 -7 -8 -9 12 11 -12 -13 -14 -15
leaf_value=-0.00082162470856788922 -0.00024205811947467738 0.0017964795656735079 0.00092284041340462875 -0.0003352889336787889 -0.00057940565880122707 0.00035988883569169374 -0.0008564993266618866 0.00060751015104566861 -0.00022919083895591461 -0.000457308393670246 3.0558675923065785e-06 0.00045802139247825836 0.00028530026458788708 -0.00099108085002323309
leaf_weight=26 20 20 20 45 43 231 34 24 204 20 73 24 41 24
leaf_count=26 20 20 20 45 43 231 34 24 204 20 73 24 41 24
internal_value=1.99682e-13 5.87788e-05 7.89444e-06 -1.97057e-05 0.000110599 0.000246545 -0.000283024 -0.000108933 -0.000208191 -0.000304327 -0.000212857 4.19624e-05 -0.000143092 -0.000650616
internal_weight=849 703 683 663 392 276 146 112 271 88 116 44 245 44
internal_count=849 703 683 663 392 276 146 112 271 88 116 44 245 44
is_linear=0
shrinkage=0.05


Tree=52
num_leaves=15
num_cat=0
split_feature=21 23 19 29 20 2 17 13 11 23 10 23 17 22
split_gain=0.00555183 0.00543116 0.013846 0.0198859 0.00985468 0.00906028 0.00738271 0.00575233 0.00545189 0.00527603 0.00448995 0.00417562 0.00390212 0.00133629
threshold=1.8950000000000002 69.685000000000016 1.655 0.58285889487590536 1.1250000000000002 27.193875000000002 3.6550000000000007 1211.7723437559014 19016.897532084422 70.355000000000004 6.9999604229822472 68.405000000000015 2.3050000000000002 4.8050000000000006
decision_type=2 2 2 2 2 2 2 2 2 2 2 2 2 2
left_child=1 5 4 -4 -3 12 8 9 11 -6 -9 -7 -1 -10
right_child=-2 2 3 -5 7 6 -8 10 13 -11 -12 -13 -14 -15
leaf_value=-0.00030750595824792981 0.00080285965980562795 -0.001022048166487366 2.0330397387624546e-05 0.0021550849452614783 0.00020424043347399372 -0.00030295573602348602 0.00090723178465850667 0.00096682332268442379 -0.00090036065916397753 -0.00063258678630899673 3.1354069284608831e-05 4.6234747221423928e-05 -0.0012000774463255463 -0.00033630116501756548
leaf_weight=25 21 21 24 20 48 108 20 29 21 31 23 413 24 21
leaf_count=25 21 21 24 20 48 108 20 29 21 31 23 413 24 21
internal_value=1.19439e-12 -2.03624e-05 0.000209587 0.000990673 -1.65174e-05 -9.16757e-05 -3.67916e-05 0.000144675 -7.03271e-05 -0.000124135 0.000553058 -2.61502e-05 -0.000744684 -0.000618331
internal_weight=849 828 196 44 152 632 583 131 563 79 52 521 49 42
internal_count=849 828 196 44 152 632 583 131 563 79 52 521 49 42
is_linear=0
shrinkage=0.05


Tree=53
num_leaves=14
num_cat=0
split_feature=20 28 23 8 15 10 24 19 15 8 11 6 23
split_gain=0.00542367 0.0054957 0.0245044 0.0047428 0.00667969 0.00639106 0.00554028 0.00528614 0.00508676 0.0049606 0.00734542 0.00416042 0.00370608
threshold=1.2624798218758702 10.459680236367975 69.475000000000009 96.112304237572729 41.615000000000009 5.9995184073630297 14.555000000000001 1.5050000000000001 43.935000000000009 94.676469867418092 17440.182213971628 0.29143750000000007 70.135000000000005
decision_type=2 2 2 2 2 2 2 2 2 2 2 2 2
left_child=1 2 -1 4 -3 7 8 11 -7 10 -6 -5 -11
right_child=-2 3 -4 5 9 6 -8 -9 -10 12 -12 -13 -14
leaf_value=-0.00054979898912798882 0.00060945403512700335 -0.00097729988379537005 0.0016038816526415759 0.00064433808156001552 -0.00045485497173966647 -0.00027053032238256948 0.00066343548969598491 0.0010799407557351515 9.4584352131490173e-05 -0.00021203814941968418 0.00041565698565477761 -3.1423051749025828e-05 -0.00091219666722247876
leaf_weight=28 35 28 25 34 39 230 24 20 163 63 64 69 27
leaf_count=28 35 28 25 34 39 230 24 20 163 63 64 69 27
internal_value=2.10187e-13 -2.6205e-05 0.000466088 -6.04909e-05 -0.000255608 1.93627e-05 -7.40582e-05 0.000336082 -0.000119096 -0.000150907 8.60457e-05 0.000191644 -0.000422086
internal_weight=849 814 53 761 221 540 417 123 393 193 103 103 90
internal_count=849 814 53 761 221 540 417 123 393 193 103 103 90
is_linear=0
shrinkage=0.05


Tree=54
num_leaves=19
num_cat=0
split_feature=25 1 23 19 29 27 20 4 29 26 18 23 8 18 20 23 31 17
split_gain=0.00523011 0.00760031 0.00607467 0.0136057 0.0157539 0.00693816 0.00675584 0.00593603 0.00576549 0.0056042 0.00557249 0.0055695 0.00454694 0.00378534 0.00333131 0.00302281 0.00269746 0.00226906
threshold=46.70000000000001 28.951000000000004 69.685000000000016 1.655 0.58285889487590536 28.345000000000002 1.155 1.4764375000000003 0.57406259443849428 16.365000000000006 4.3550000000000013 70.355000000000004 101.7316142953036 4.8850000000000007 1.2350000000000001 69.125000000000014 0.015244356948114263 2.3450000000000002
decision_type=2 2 2 2 2 2 2 2 2 2 2 2 2 2 2 2 2 2
left_child=1 2 6 5 -5 11 8 14 -1 -3 -9 -4 -2 -7 -8 16 -11 -10
right_child=12 9 3 4 -6 13 7 10 17 15 -12 -13 -14 -15 -16 -17 -18 -19
leaf_value=-6.3151855155250386e-06 -0.00085642716940128596 0.0011923773267335492 1.5050872468968809e-05 0.00010806290539103035 0.0020268150605261327 0.0005702802747703117 -0.00029712607747217829 0.00098198673862498259 -0.00054289556744685074 -0.00037779999547637999 9.3134242981262491e-05 -0.00088145836645708202 -6.7689196912983937e-06 -0.00024362039737752642 0.00011784202678510074 0.00060220810518200917 0.00040843686703738056 -0.001200139703481303
leaf_weight=34 32 20 41 23 20 50 181 20 29 24 149 30 31 20 66 35 20 24
leaf_count=34 32 20 41 23 20 50 181 20 29 24 149 30 31 20 66 35 20 24
internal_value=4.85399e-13 3.51342e-05 -2.38877e-05 0.000221939 0.00100051 -1.54969e-05 -0.000113812 -3.00132e-05 -0.000514506 0.000444711 0.000198324 -0.000363756 -0.000438341 0.000337737 -0.000186244 0.000255428 -2.04196e-05 -0.000840516
internal_weight=849 786 687 184 43 141 503 416 87 99 169 71 63 70 247 79 44 53
internal_count=849 786 687 184 43 141 503 416 87 99 169 71 63 70 247 79 44 53
is_linear=0
shrinkage=0.05


Tree=55
num_leaves=10
num_cat=0
split_feature=15 23 21 6 19 14 13 26 16
split_gain=0.00499984 0.00501034 0.00492309 0.00446217 0.00495187 0.00509035 0.0040264 0.00434391 0.00443578
threshold=45.975000000000001 71.065000000000012 1.5850000000000002 0.08925000000000001 1.7550000000000001 1242.8464744905334 1188.1985066194532 17.520000000000003 37.185000000000009
decision_type=2 2 2 2 2 2 2 2 2
left_child=1 2 6 -4 5 -5 -1 8 -8
right_child=-2 -3 3 4 -6 -7 7 -9 -10
leaf_value=-0.00078306855156652405 0.00068266475797057729 0.00076014447491616014 0.00064382852400865834 0.00031935117675960012 -0.00068003361392766242 -4.8999630191435964e-05 -4.6931904435190459e-05 0.00054635518114082521 -0.00054854304594893777
leaf_weight=29 26 20 29 124 25 385 122 20 69
leaf_count=29 26 20 29 124 25 385 122 20 69
internal_value=1.72429e-12 -2.15666e-05 -4.10363e-05 3.97955e-05 6.99222e-06 4.07361e-05 -0.000230654 -0.00015473 -0.000228142
internal_weight=849 823 803 563 534 509 240 211 191
internal_count=849 823 803 563 534 509 240 211 191
is_linear=0
shrinkage=0.05


Tree=56
num_leaves=12
num_cat=0
split_feature=22 23 15 25 1 19 17 15 19 12 23
split_gain=0.00486021 0.0114414 0.00530641 0.00709286 0.00520497 0.00515684 0.00485585 0.00421191 0.0023524 0.002031 0.00221285
threshold=4.4150000000000009 70.870000000000019 45.340000000000011 46.70000000000001 27.801375000000004 0.88500000000000012 3.6550000000000007 41.225000000000001 1.2550000000000001 20800.81856980739 69.175000000000026
decision_type=2 2 2 2 2 2 2 2 2 2 2
left_child=4 2 3 6 -1 -4 7 -2 -5 10 -7
right_child=1 -3 5 8 -6 9 -8 -9 -10 -11 -12
leaf_value=3.235320080420934e-05 -0.00063572813672051003 0.0011019866643133961 0.001025818946337412 -0.00032884555959912103 -0.0011083670437801629 -4.2219760159597454e-06 0.00071943088392303759 -8.5032238746632278e-06 -0.0010702938012400411 -0.0002796292697166791 0.00071489799302071333
leaf_weight=20 28 24 22 23 20 23 22 607 20 20 20
leaf_count=20 28 24 22 23 20 23 22 607 20 20 20
internal_value=-2.92379e-13 2.66011e-05 -6.27695e-06 -5.15767e-05 -0.000538007 0.00036678 -1.0859e-05 -3.61604e-05 -0.000673705 0.000136639 0.000330252
internal_weight=849 809 785 700 40 85 657 635 43 63 43
internal_count=849 809 785 700 40 85 657 635 43 63 43
is_linear=0
shrinkage=0.05


Tree=57
num_leaves=12
num_cat=0
split_feature=13 9 9 11 19 25 28 10 14 10 11
split_gain=0.00470652 0.00581882 0.0259154 0.00500282 0.0056261 0.00478105 0.00620465 0.00608821 0.00403288 0.00259207 0.00114876
threshold=1231.1279277924878 4.1860200118819533 3.9998133302431751 19016.897532084422 1.5950000000000004 44.525000000000013 11.262023717306617 4.4996244818363609 1272.9720033105307 4.1981994306686206 19659.861715851039
decision_type=2 2 2 2 2 2 2 2 2 2 2
left_child=1 2 3 4 8 7 9 -3 -1 -7 -5
right_child=-2 5 -4 10 -6 6 -8 -9 -10 -11 -12
leaf_value=3.8094736209061607e-05 0.00060473071277937713 0.00040390586737209031 0.0018120951249147766 -0.00071432136179215306 -0.00057207085774280131 8.3705289768160244e-05 -0.0010746027449118523 -0.00063634047405271722 0.00074426183120868659 -0.00064639466916560206 -0.00023889632054003109
leaf_weight=543 31 39 20 27 37 31 34 22 21 20 24
leaf_count=543 31 39 20 27 37 31 34 22 21 20 24
internal_value=3.34954e-13 -2.29177e-05 3.92411e-05 -1.51409e-05 2.52052e-05 -0.000309018 -0.000551406 2.87351e-05 6.43882e-05 -0.000202608 -0.000490592
internal_weight=849 818 672 652 601 146 85 61 564 51 51
internal_count=849 818 672 652 601 146 85 61 564 51 51
is_linear=0
shrinkage=0.05


Tree=58
num_leaves=8
num_cat=0
split_feature=21 28 23 23 21 17 14
split_gain=0.00457889 0.00473803 0.0210793 0.00420357 0.00425653 0.00377308 0.00401654
threshold=1.8950000000000002 10.459680236367975 69.475000000000009 70.920000000000016 1.3950000000000002 1.7950000000000002 1235.3785633005884
decision_type=2 2 2 2 2 2 2
left_child=1 2 -1 4 -3 -6 -7
right_child=-2 3 -4 -5 5 6 -8
leaf_value=-0.00050334033543809453 0.00072912476801623898 -0.00070007805277229004 0.0014941600597521757 -0.00074752795764999023 0.00053984365969275434 0.00024922898088997476 -8.3560644583889783e-05
leaf_weight=28 21 23 25 21 30 107 594
leaf_count=28 21 23 25 21 30 107 594
internal_value=-2.62821e-12 -1.84923e-05 0.000438877 -4.97704e-05 -3.03369e-05 -9.26431e-06 -3.27639e-05
internal_weight=849 828 53 775 754 731 701
internal_count=849 828 53 775 754 731 701
is_linear=0
shrinkage=0.05


Tree=59
num_leaves=12
num_cat=0
split_feature=25 28 23 15 8 8 21 31 13 1 26
split_gain=0.00454796 0.00716569 0.0216257 0.00704399 0.00407784 0.00599815 0.00526886 0.00528073 0.00519064 0.00456347 0.00453194
threshold=47.145000000000003 10.459680236367975 69.485000000000014 45.895000000000003 99.945396696209414 104.55150330573717 1.7450000000000003 0.015479205037637247 1207.066063383327 28.951000000000004 16.135000000000002
decision_type=2 2 2 2 2 2 2 2 2 2 2
left_child=1 2 -1 4 6 10 8 -8 -3 -7 -6
right_child=-2 3 -4 -5 5 9 7 -9 -10 -11 -12
leaf_value=-0.00036323804435176921 -0.00066438261037546917 -0.00057062966694573726 0.0017667538843604482 0.00084543609860386084 0.00099242014825687785 -0.00014682014792194678 -0.00017135923553723842 0.0008349407273768024 -7.2133535347611289e-05 0.00036131603303426975 0.00019766926761951803
leaf_weight=26 25 102 22 23 21 294 32 22 107 52 123
leaf_count=26 25 102 22 23 21 294 32 22 107 52 123
internal_value=8.54004e-13 2.01572e-05 0.000613008 -1.6514e-05 -4.28418e-05 4.2403e-05 -0.000201663 0.000238615 -0.000315419 -7.04529e-05 0.00031357
internal_weight=849 824 48 776 753 490 263 54 209 346 144
internal_count=849 824 48 776 753 490 263 54 209 346 144
is_linear=0
shrinkage=0.05


Tree=60
num_leaves=11
num_cat=0
split_feature=22 23 7 15 25 23 17 29 19 18
split_gain=0.00430903 0.0100085 0.00649015 0.00436501 0.00606439 0.00458849 0.00396981 0.00405354 0.00191919 0.000861376
threshold=4.4450000000000012 70.870000000000019 1.0725808250125612 45.340000000000011 46.70000000000001 69.195000000000007 3.6550000000000007 0.59761911080083674 1.2550000000000001 4.995000000000001
decision_type=2 2 2 2 2 2 2 2 2 2
left_child=2 3 -1 4 6 9 7 -2 -6 -5
right_child=1 -3 -4 5 8 -7 -8 -9 -10 -11
leaf_value=-0.0011164155823367072 6.191041353614731e-05 0.0010317537445151479 0.00011246722879150185 -0.00016812247548451915 -0.00030978721874619272 0.00075184618078826654 0.00065197368219907569 -0.0002033528815855289 -0.00097949410868750412 0.00026150589867029338
leaf_weight=21 410 24 22 28 23 37 22 222 20 20
leaf_count=21 410 24 22 28 23 37 22 222 20 20
internal_value=1.95879e-12 2.60179e-05 -0.000487685 -4.84864e-06 -4.61013e-05 0.000333423 -8.28387e-06 -3.12675e-05 -0.000621279 1.08893e-05
internal_weight=849 806 43 782 697 85 654 632 43 48
internal_count=849 806 43 782 697 85 654 632 43 48
is_linear=0
shrinkage=0.05


Tree=61
num_leaves=14
num_cat=0
split_feature=9 23 24 29 23 19 20 17 23 29 17 12 27
split_gain=0.00437916 0.0197192 0.00514539 0.00508265 0.00476681 0.00576813 0.00469735 0.00456624 0.00465232 0.0043812 0.00377508 0.00339451 0.00310716
threshold=4.3897223465045956 70.445000000000007 16.115000000000006 0.58842600508425458 68.865000000000023 0.87500000000000011 1.0950000000000004 2.2050000000000005 70.185000000000016 0.60702679651400904 2.0550000000000002 18533.200661964245 30.145000000000003
decision_type=2 2 2 2 2 2 2 2 2 2 2 2 2
left_child=1 2 4 6 11 10 -2 -8 -9 -7 -6 -1 -13
right_child=3 -3 -4 -5 5 9 7 8 -10 -11 -12 12 -14
leaf_value=-0.00072277933784509803 0.0005174190577236004 0.0015992563663166947 0.00077696235887179639 -0.00078461630884489478 0.0011139270730200223 0.00014528354036570917 0.00031023153755813842 -0.00095226111930216953 -8.4211498081761732e-05 -0.00023524827759146042 0.00025716411453484194 -0.00020198720848128881 0.00027521975464812231
leaf_weight=26 25 20 21 34 20 221 25 29 33 115 36 203 41
leaf_count=26 25 20 21 34 20 221 25 29 33 115 36 203 41
internal_value=-8.67073e-13 5.175e-05 6.43501e-06 -0.00024918 -1.80077e-05 9.33433e-05 -8.66365e-05 -0.000260216 -0.000490235 1.5042e-05 0.000563151 -0.000179673 -0.000121801
internal_weight=849 703 683 146 662 392 112 87 62 336 56 270 244
internal_count=849 703 683 146 662 392 112 87 62 336 56 270 244
is_linear=0
shrinkage=0.05


Tree=62
num_leaves=12
num_cat=0
split_feature=14 13 9 9 25 10 29 11 19 16 16
split_gain=0.00396262 0.00422519 0.00450362 0.0233832 0.00424846 0.00570335 0.00424098 0.00404261 0.0043071 0.00351276 0.000989175
threshold=1272.9720033105307 1231.1279277924878 4.1860200118819533 3.9998133302431751 44.385000000000012 4.4996244818363609 0.56288868839946538 19016.897532084422 1.5950000000000004 37.805000000000007 36.675000000000004
decision_type=2 2 2 2 2 2 2 2 2 2 2
left_child=1 2 3 7 5 -4 -6 8 -1 -8 -9
right_child=-2 -3 4 -5 6 -7 9 10 -10 -11 -12
leaf_value=3.5173714095569565e-05 0.00064734126031196313 0.00055464676885505124 0.00045312394247636859 0.0016989924167864956 3.8892805101708154e-05 -0.00061096335692127472 -0.00041656909798826419 -0.00028737758519127967 -0.00052236580872763499 -0.0011668637842656329 -0.00074133587317191994
leaf_weight=543 23 31 34 20 26 20 39 30 37 26 20
leaf_count=543 23 31 34 20 26 20 39 30 37 26 20
internal_value=7.01029e-13 -1.80252e-05 -4.03558e-05 1.58517e-05 -0.000292321 5.90175e-05 -0.000500807 -3.75814e-05 -3.93462e-07 -0.000716687 -0.000468961
internal_weight=849 826 795 650 145 54 91 630 580 65 50
internal_count=849 826 795 650 145 54 91 630 580 65 50
is_linear=0
shrinkage=0.05


Tree=63
num_leaves=9
num_cat=0
split_feature=25 28 23 23 15 11 17 24
split_gain=0.00378665 0.00651691 0.0229258 0.00635409 0.00549281 0.00533577 0.00443813 0.00352912
threshold=47.145000000000003 11.071139083384596 70.195000000000007 70.725000000000009 45.895000000000003 17645.08567399556 1.7950000000000002 15.475000000000003
decision_type=2 2 2 2 2 2 2 2
left_child=1 2 5 4 6 -1 -3 -8
right_child=-2 3 -4 -5 -6 -7 7 -9
leaf_value=-0.00061769611213821922 -0.00060623010852577867 0.00061899341492859937 0.0018645630758588336 -0.00075174545761848126 0.00076336980741673521 0.00037907735637292782 -7.1169250291984169e-05 0.00049272517097616124
leaf_weight=25 25 26 21 29 23 29 642 29
leaf_count=25 25 26 21 29 23 29 642 29
internal_value=-2.71027e-13 1.83929e-05 0.000462756 -2.61027e-05 3.12459e-06 -8.23918e-05 -2.19624e-05 -4.67983e-05
internal_weight=849 824 75 749 720 54 697 671
internal_count=849 824 75 749 720 54 697 671
is_linear=0
shrinkage=0.05


Tree=64
num_leaves=17
num_cat=0
split_feature=21 30 17 10 11 8 9 23 10 10 9 19 28 29 30 21
split_gain=0.00378944 0.00410411 0.0208028 0.0110948 0.00500774 0.00854769 0.00743912 0.00615191 0.00455802 0.00518322 0.00417143 0.00404713 0.00511388 0.00394718 0.00297416 0.0018462
threshold=1.8950000000000002 211.81159290770128 2.2750000000000004 5.05167734536486 17431.79628792006 94.605368563869277 4.1860200118819533 69.655000000000015 3.9998081512348169 6.0810982275393286 3.494631232711376 0.94500000000000006 17.18784176554998 0.56934806588689024 235.20721003356377 1.675
decision_type=2 2 2 2 2 2 2 2 2 2 2 2 2 2 2 2
left_child=1 2 11 -4 8 7 10 14 -3 -10 -7 -1 -13 -8 -6 -14
right_child=-2 4 3 -5 5 6 13 -9 9 -11 -12 12 15 -15 -16 -17
leaf_value=0.00030155283187219365 0.00066329866198689812 0.00019003805804380177 0.00035919093992561104 0.0020246352202957498 -0.00023448678637998034 -6.3210367051276918e-05 -0.00013860859563229262 0.0010384560733412704 -0.0010571956856652192 -0.00017059651008821675 0.00046494774821284656 0.00026844064472243191 -0.0010196988222146914 -0.00093835227477635872 0.00057652954797958965 -0.00037193960008814682
